
\data\
ngram 1=6107
ngram 2=11671
ngram 3=181

\1-grams:
-1.125894	</s>
-99	<s>	-0.008003712
-3.809391	آبل	-0.03634007
-3.508361	آخر	-0.03630637
-4.110421	آش	-0.03647482
-3.6333	آل	-0.1169942
-4.110421	آلاف	-0.03637376
-4.110421	آنذاك	-0.03613787
-4.110421	آنفا	-0.03610416
-4.110421	آية	-0.03647482
-3.809391	آيفون	-0.03546318
-4.110421	أ	-0.03647482
-4.110421	أباء	-0.03640745
-4.110421	أبارتياد	-0.03647482
-4.110421	أبتسمت	-0.03613787
-3.809391	أبحاث	-0.03644113
-4.110421	أبحث	-0.03640745
-4.110421	أبرز	-0.03644114
-4.110421	أبطلنا	-0.03647482
-4.110421	أبناء	-0.03640745
-4.110421	أبناءهم	-0.02358741
-3.6333	أبو	-0.1175336
-4.110421	أبواب	-0.03647482
-4.110421	أتاي	-0.03647482
-4.110421	أتقدم	-0.03647482
-3.6333	أتمنى	-0.03451685
-4.110421	أتوقع	-0.03461835
-4.110421	أثارتني	-0.03623898
-4.110421	أثرا	-0.03644114
-4.110421	أثمنة	-0.03647482
-3.809391	أثناء	-0.03640745
-4.110421	أجرة	-0.03640745
-4.110421	أجركم	-0.002727602
-3.265323	أجل	-0.03495647
-4.110421	أجلا	-0.002727602
-3.508361	أجمل	-0.03620527
-4.110421	أجنبية	-0.03475364
-4.110421	أجندات	-0.002727602
-4.110421	أجندة	-0.03600302
-3.6333	أجور	-0.03634006
-4.110421	أجي	-0.03644114
-4.110421	أح	-0.03647482
-4.110421	أحترم	-0.03647482
-3.508361	أحد	-0.03607044
-4.110421	أحداث	-0.03647482
-4.110421	أحداد	-0.03647482
-4.110421	أحزاب	-0.03647482
-4.110421	أحسن	-0.03640745
-4.110421	أحكام	-0.03637376
-4.110421	أحلام	-0.03647482
-4.110421	أحلم	-0.034686
-4.110421	أحلى	-0.03647482
-4.110421	أحمد	-0.03495649
-4.110421	أحمر	-0.03647482
-4.110421	أحوال	-0.03644114
-4.110421	أحول	-0.03644114
-3.809391	أخبار	-0.03640745
-4.110421	أخذ	-0.03644114
-3.809391	أخر	-0.002691191
-3.809391	أخرى	-0.03644113
-4.110421	أخشى	-0.03637376
-4.110421	أخنشة	-0.03563195
-4.110421	أخننة	-0.03610416
-3.265323	أخنوش	0.0001212098
-4.110421	أخواتنا	-0.03623898
-3.809391	أخي	-0.130969
-3.809391	أدبيات	-0.03644113
-4.110421	أدر	-0.03593557
-4.110421	أربعة	-0.03647482
-4.110421	أرسلان	-0.03647482
-4.110421	أرسلت	-0.03640745
-4.110421	أرسلنا	-0.03647482
-4.110421	أرض	-0.03647482
-4.110421	أرمن	-0.03647482
-3.809391	أروبا	-0.03600301
-4.110421	أريزونا	-0.03644114
-3.809391	أزمة	-0.03627268
-3.809391	أزيد	-0.1550092
-4.110421	أسأت	-0.03644114
-4.110421	أسئلة	-0.03637376
-4.110421	أساطير	-0.03644114
-4.110421	أسامة	-0.03647482
-4.110421	أسباب	-0.03647482
-4.110421	أسبوع	-0.03647482
-4.110421	أستاذ	-0.002727602
-4.110421	أستاذا	-0.03647482
-4.110421	أستخدام	-0.03647482
-4.110421	أستطيع	-0.03461835
-4.110421	أسرة	-0.03647482
-4.110421	أسس	-0.03617158
-4.110421	أسسته	-0.03593557
-4.110421	أسسها	-0.03647482
-4.110421	أسفرت	-0.03647482
-4.110421	أسمع	-0.0267678
-4.110421	أسمعها	-0.03634007
-4.110421	أسمى	-0.03647482
-4.110421	أسود	-0.03556446
-3.411451	أش	-0.0263198
-4.110421	أشبولكغ	-0.03647482
-4.110421	أشعر	-0.03630638
-4.110421	أشك	-0.02358741
-3.508361	أشهر	-0.03617157
-4.110421	أشياء	-0.03644114
-4.110421	أصابك	-0.03644114
-4.110421	أصبت	-0.03647482
-3.156179	أصبح	-0.03316138
-3.809391	أصبحت	-0.03610416
-3.6333	أصحاب	-0.03637375
-4.110421	أصحابه	-0.03634007
-4.110421	أصدروا	-0.03647482
-4.110421	أصدق	-0.03630638
-3.809391	أصوات	-0.03607044
-4.110421	أصول	-0.03644114
-4.110421	أضحت	-0.03590185
-4.110421	أضواء	-0.03637376
-4.110421	أطال	-0.03559821
-4.110421	أطرها	-0.0267678
-3.809391	أطفال	-0.03627268
-4.110421	أطلقت	-0.03647482
-4.110421	أطيب	-0.03647482
-4.110421	أعتقد	-0.03630638
-4.110421	أعداد	-0.03644114
-4.110421	أعراب	-0.03603673
-4.110421	أعراض	-0.03644114
-4.110421	أعرف	-0.03640745
-4.110421	أعزه	-0.03647482
-3.809391	أعضاء	-0.02673335
-4.110421	أعظم	-0.03559821
-4.110421	أعلاه	-0.03644114
-4.110421	أعلن	-0.03637376
-4.110421	أعلى	-0.0267678
-3.809391	أعمارهم	-0.03411066
-4.110421	أعمال	-0.03647482
-3.809391	أعماله	-0.03640745
-4.110421	أعود	-0.03647482
-4.110421	أعوذ	-0.03644114
-3.809391	أغاني	-0.03475363
-4.110421	أغانيه	-0.03640745
-4.110421	أغبى	-0.03647482
-4.110421	أغلبية	-0.03640745
-3.809391	أغلقت	-0.03637376
-4.110421	أغني	-0.03647482
-4.110421	أغنية	-0.03647482
-4.110421	أغنيته	-0.03644114
-3.809391	أفريقيا	-0.002691191
-3.508361	أفضل	-0.03617157
-4.110421	أفعال	-0.03647482
-3.809391	أفكار	-0.03583439
-4.110421	أقبح	-0.03640745
-4.110421	أقدم	-0.03647482
-4.110421	أقصر	-0.03644114
-4.110421	أقطعي	-0.03647482
-3.411451	أقل	-0.1994571
-4.110421	أقول	-0.03634007
-3.809391	أكادير	-0.002618372
-4.110421	أكاذيب	-0.03610416
-3.207331	أكبر	-0.1259166
-3.411451	أكتوبر	-0.03505787
-3.069029	أكثر	-0.3690182
-4.110421	أكثم	-0.03647482
-4.110421	أكد	-0.02358741
-3.809391	أكل	-0.002326973
-4.110421	أكلنا	-0.03647482
-4.110421	أكن	-0.03647482
-4.110421	أكيد	-0.03640745
-3.03124	ألف	-0.07381224
-4.110421	ألمان	-0.002727602
-3.6333	أليسون	-0.03461834
-3.411451	أم	-0.03316138
-3.6333	أما	-0.0135136
-4.110421	أمازيغ	-0.03647482
-4.110421	أمازيغية	-0.03634007
-3.411451	أمام	-0.03623898
-4.110421	أمتار	-0.0267678
-4.110421	أمر	-0.03637376
-4.110421	أمرير	-0.02358741
-3.411451	أمريكا	-0.0388584
-3.809391	أمريكي	-0.002654783
-3.809391	أمس	-0.03623898
-3.508361	أمل	-0.002509117
-4.110421	أملاك	-0.03647482
-4.110421	أمنية	-0.002727602
-4.110421	أمهات	-0.03647482
-4.110421	أمهاتنا	-0.0330256
-3.03124	أمير	-0.007130452
-4.110421	أمينوكس	-0.03634007
-2.362233	أن	-0.0360795
-3.265323	أنا	-0.02881081
-4.110421	أناني	-0.002727602
-3.207331	أنت	0.008445174
-4.110421	أنحاء	-0.03607045
-4.110421	أندرويد	-0.03647482
-4.110421	أنذل	-0.03610416
-4.110421	أنصار	-0.03640745
-4.110421	أنظمة	-0.03647482
-4.110421	أنظمتنا	-0.02358741
-4.110421	أنفسهم	-0.03637376
-4.110421	أنقذت	-0.002727602
-3.508361	أنك	-0.09571066
-4.110421	أننا	-0.03647482
-3.33227	أنني	-0.0618229
-3.265323	أنه	-0.03444918
-3.809391	أنها	-0.03644113
-4.110421	أنهم	-0.03647482
-3.809391	أهل	-0.03607044
-3.809391	أهم	-0.03465217
-4.110421	أهواه	-0.0267678
-3.03124	أو	-0.0292064
-3.508361	أوباما	-0.03610415
-3.33227	أوروبا	-0.00214475
-4.110421	أوروبية	-0.002727602
-3.809391	أوريد	-0.03610416
-4.110421	أوكرانيا	-0.002727602
-4.110421	أوكيمدن	-0.03644114
-3.508361	أول	-0.03468599
-4.110421	أولئك	-0.03617158
-3.6333	أولا	-0.083851
-4.110421	أولادكم	-0.002727602
-4.110421	أولية	-0.03647482
-3.33227	أي	-0.03580065
-3.6333	أيام	-0.023518
-4.110421	أيض	-0.03630638
-3.6333	أيضا	-0.03637375
-3.809391	أيها	-0.03644113
-4.110421	أيوب	-0.002727602
-4.110421	ؤون	-0.03647482
-4.110421	إ	-0.03647482
-4.110421	إباحية	-0.03647482
-4.110421	إجابة	-0.002727602
-4.110421	إجماع	-0.03630638
-4.110421	إجمالي	-0.03644114
-4.110421	إحصاء	-0.03623898
-4.110421	إذ	-0.03630638
-3.411451	إذا	-0.08187965
-4.110421	إذن	-0.03647482
-4.110421	إرادتنا	-0.0330256
-4.110421	إسباني	-0.03640745
-3.508361	إسبانيا	-0.03593557
-4.110421	إستفتاءه	-0.03644114
-4.110421	إسرائيلية	-0.03647482
-4.110421	إسماعيل	-0.0330256
-3.809391	إسمه	-0.0235527
-4.110421	إشراك	-0.03613787
-3.809391	إصلاح	-0.03600301
-3.809391	إضراب	-0.03640745
-3.6333	إطار	-0.03295769
-4.110421	إطلاقا	-0.03180166
-4.110421	إطلاقه	-0.03647482
-4.110421	إعرف	-0.03647482
-4.110421	إعفاء	-0.03647482
-4.110421	إعلامية	-0.03647482
-3.809391	إعلان	-0.03627268
-4.110421	إفراغ	-0.03620528
-3.411451	إفريقيا	-0.002545536
-4.110421	إقتصادية	-0.03647482
-4.110421	إقرأ	-0.03644114
-4.110421	إقرار	-0.03647482
-4.110421	إقليمية	-0.03647482
-4.110421	إقناع	-0.03647482
-4.110421	إكتشفها	-0.03644114
-3.265323	إلا	-0.02143088
-4.110421	إلزام	-0.03630638
-4.110421	إلقاء	-0.03644114
-2.663263	إلى	-0.05029675
-4.110421	إليك	-0.03647482
-4.110421	إليكم	-0.03647482
-3.809391	إليه	-0.03427996
-3.809391	إمام	-0.03640745
-3.411451	إن	-0.0008304715
-4.110421	إنا	-0.03644114
-3.809391	إنتبه	-0.1646151
-4.110421	إنتشار	-0.03640745
-4.110421	إنجما	-0.03647482
-3.508361	إنسان	-0.03630637
-4.110421	إنساني	-0.03647482
-4.110421	إنسانيته	-0.03623898
-4.110421	إنستغرام	-0.03647482
-4.110421	إنشاء	-0.03647482
-4.110421	إنشاؤها	-0.02358741
-4.110421	إنطلاق	-0.03647482
-4.110421	إنهم	-0.03644114
-4.110421	إني	-0.03471982
-4.110421	إهانة	-0.03647482
-4.110421	إيجابي	-0.03647482
-4.110421	إيديولوجية	-0.03647482
-4.110421	إيذائنا	-0.03647482
-3.6333	إيران	-0.0327539
-4.110421	إيفل	-0.03593557
-4.110421	إيفني	-0.03617158
-4.110421	إيكون	-0.03647482
-4.110421	إيماننا	-0.03647482
-4.110421	إينوي	-0.03647482
-4.110421	إيه	-0.02358741
-3.156179	إيهاب	-0.9995956
-3.33227	ا	-0.03319532
-4.110421	اأكادير	-0.03634007
-4.110421	ائتلاف	-0.03640745
-4.110421	ابان	-0.02358741
-4.110421	ابتداء	-0.0267678
-4.110421	ابتعاد	-0.03640745
-4.110421	ابتعادنا	-0.03431381
-4.110421	ابجديات	-0.03640745
-4.110421	ابحث	-0.03431381
-4.110421	ابداع	-0.03647482
-4.110421	ابذ	-0.03620528
-4.110421	ابل	-0.02358741
-3.6333	ابن	-0.1174999
-4.110421	ابنا	-0.03640745
-4.110421	ابنائهم	-0.02358741
-4.110421	ابوابه	-0.002727602
-4.110421	اتاقاو	-0.03559821
-4.110421	اتبادل	-0.03640745
-4.110421	اتبادلها	-0.02358741
-4.110421	اتحاديي	-0.002727602
-4.110421	اتحفوني	-0.002727602
-4.110421	اتخاذ	-0.03640745
-4.110421	اتزوجه	-0.03647482
-4.110421	اتصالات	-0.03444919
-3.809391	اتفق	-0.162995
-4.110421	اتمنى	-0.03640745
-4.110421	اتهام	-0.03627268
-4.110421	اتهامات	-0.03637376
-4.110421	اتهم	-0.03569945
-4.110421	اتوصل	-0.03647482
-3.809391	اجركم	-0.0329577
-3.809391	اجعل	-0.03627268
-3.33227	اجل	-0.002290536
-4.110421	اجمل	-0.002727602
-4.110421	اجهاض	-0.03647482
-4.110421	اجور	-0.03647482
-4.110421	اجي	-0.03563195
-4.110421	احباط	-0.03647482
-4.110421	احتاج	-0.03647482
-4.110421	احتجاجا	-0.03180166
-4.110421	احتجاجي	-0.03180166
-3.809391	احتجاجية	-0.03620528
-4.110421	احتجازهم	-0.02358741
-3.809391	احترام	-0.03630637
-4.110421	احتراما	-0.03647482
-4.110421	احتقار	-0.03640745
-4.110421	احتكار	-0.03610416
-3.809391	احتلال	-0.03634007
-3.809391	احتمال	-0.03627268
-4.110421	احد	-0.03647482
-4.110421	احرارا	-0.03647482
-4.110421	احس	-0.03647482
-4.110421	احساس	-0.03644114
-4.110421	احسن	-0.03630638
-3.809391	احنا	-0.03640745
-4.110421	اخبار	-0.03644114
-4.110421	اختار	-0.03644114
-4.110421	اختلاس	-0.03623898
-4.110421	اختلاف	-0.03637376
-4.110421	اختلف	-0.03623898
-4.110421	اختلفنا	-0.03623898
-3.809391	اختي	-0.002654783
-4.110421	اختيار	-0.03644114
-3.809391	اخرج	-0.03637376
-4.110421	اخطر	-0.03610416
-4.110421	اخلاقي	-0.03180166
-3.33227	اخنوش	-0.03607044
-4.110421	اخي	-0.002727602
-3.6333	ادريس	-0.03610415
-3.411451	اذا	-0.03492267
-4.110421	اذكر	-0.03637376
-4.110421	اذن	-0.03644114
-4.110421	ارائي	-0.03647482
-3.6333	ارادة	-0.03539565
-3.809391	ارتفاع	-0.03600301
-4.110421	ارتماء	-0.03569945
-4.110421	ارجوكم	-0.03647482
-4.110421	ارزقني	-0.002727602
-3.809391	ارى	-0.03644113
-3.809391	اريد	-0.0342461
-4.110421	ازمة	-0.03647482
-3.809391	اسئلة	-0.03573318
-4.110421	اسة	-0.03647482
-4.110421	استباحت	-0.03593557
-4.110421	استثمار	-0.03593557
-3.809391	استثمارات	-0.1626906
-4.110421	استدعاء	-0.03630638
-4.110421	استراتيجية	-0.03647482
-4.110421	استضافت	-0.03600302
-4.110421	استطاعت	-0.034686
-4.110421	استطعت	-0.034686
-4.110421	استعارة	-0.03647482
-4.110421	استعلاء	-0.03644114
-4.110421	استعمالا	-0.0267678
-4.110421	استعمالها	-0.03647482
-4.110421	استعمرتنا	-0.0352268
-4.110421	استغلت	-0.03644114
-4.110421	استغلوا	-0.03640745
-4.110421	استفتاء	-0.03647482
-3.508361	استقالة	-0.2470404
-4.110421	استقبلت	-0.03640745
-4.110421	اسس	-0.02358741
-4.110421	اسطنبول	-0.002727602
-4.110421	اسلاميين	-0.03644114
-3.508361	اسم	-0.03566569
-4.110421	اسمع	-0.03647482
-4.110421	اسمه	-0.03647482
-4.110421	اسوأ	-0.03640745
-4.110421	اسي	-0.03644114
-4.110421	اسيدي	-0.03613787
-3.265323	اش	-0.05922993
-4.110421	اشارككم	-0.03647482
-4.110421	اشتباكات	-0.03590185
-4.110421	اشترت	-0.03549694
-4.110421	اشتقتلك	-0.002727602
-4.110421	اشتياقا	-0.03556446
-4.110421	اشعال	-0.03647482
-3.809391	اشك	-0.1518288
-4.110421	اشكال	-0.03644114
-4.110421	اشكاليات	-0.03637376
-3.411451	اشنو	-0.0009401441
-4.110421	اشهر	-0.03644114
-4.110421	اصبحت	-0.03647482
-4.110421	اصبركم	-0.03644114
-4.110421	اصبع	-0.03647482
-4.110421	اصحاب	-0.03634007
-4.110421	اصراره	-0.03180166
-4.110421	اصطناعي	-0.0267678
-4.110421	اصلا	-0.03647482
-3.809391	اصلاح	-0.03627268
-4.110421	اصول	-0.03644114
-4.110421	اضطر	-0.03610416
-4.110421	اطلاق	-0.03637376
-4.110421	اعتبرت	-0.03647482
-4.110421	اعتداء	-0.03647482
-3.809391	اعتذر	-0.03613787
-4.110421	اعترفوا	-0.03647482
-4.110421	اعتقادي	-0.03647482
-4.110421	اعتقال	-0.03644114
-3.6333	اعتقد	-0.03417838
-4.110421	اعتقلت	-0.03603673
-4.110421	اعتماد	-0.03180166
-4.110421	اعلان	-0.03431381
-4.110421	اعلنت	-0.03627268
-4.110421	اعوذ	-0.03647482
-4.110421	اعيدت	-0.002727602
-4.110421	اغتصاب	-0.03644114
-3.6333	اغراس	-0.03634006
-4.110421	اغلب	-0.03647482
-4.110421	افريقيا	-0.03637376
-3.6333	افضل	-0.03424609
-4.110421	افكاره	-0.03647482
-4.110421	افلح	-0.02358741
-3.809391	افهم	-0.03640745
-4.110421	اقاضي	-0.03644114
-4.110421	اقترح	-0.03647482
-4.110421	اقتصاد	-0.03444919
-4.110421	اقتصادي	-0.03644114
-4.110421	اقتناعي	-0.03647482
-4.110421	اقرب	-0.03637376
-4.110421	اقرر	-0.0352268
-4.110421	اقل	-0.0267678
-4.110421	اقم	-0.03644114
-4.110421	اقول	-0.034686
-4.110421	اقوى	-0.03644114
-3.411451	اكتشاف	-0.03620527
-3.6333	اكتوبر	-0.07334916
-4.110421	اكس	-0.03630638
-3.809391	ال	0.007810649
-3.809391	الآخر	-0.0235527
-4.110421	الآخرين	-0.03630638
-4.110421	الآزوتية	-0.03536189
-4.110421	الآلية	-0.03536189
-3.508361	الآن	-0.01828127
-4.110421	الآنسة	-0.03647482
-4.110421	الأبناك	-0.03647482
-4.110421	الأبواب	-0.03634007
-4.110421	الأبيض	-0.03637376
-4.110421	الأتراك	-0.03647482
-3.809391	الأجانب	-0.002691191
-3.809391	الأجنبي	-0.03285582
-4.110421	الأجور	-0.03647482
-4.110421	الأحبة	-0.03630638
-3.508361	الأحد	-0.03556445
-4.110421	الأحرار	-0.03607045
-3.6333	الأحزاب	-0.02662999
-4.110421	الأحمر	-0.002727602
-4.110421	الأخ	-0.03644114
-3.809391	الأخبار	0.00103825
-4.110421	الأخرين	-0.002727602
-4.110421	الأخير	-0.03647482
-3.6333	الأخيرة	-0.083851
-4.110421	الأدباء	-0.0356657
-3.508361	الأرض	-0.03556445
-4.110421	الأرعن	-0.03644114
-4.110421	الأرقام	-0.03647482
-4.110421	الأزرق	-0.02358741
-4.110421	الأزمي	-0.03647482
-4.110421	الأزواج	-0.03647482
-4.110421	الأساتذة	-0.03647482
-4.110421	الأساسي	-0.03647482
-3.809391	الأسباب	-0.03644113
-4.110421	الأستاذ	-0.03586812
-3.809391	الأسد	-0.03607044
-4.110421	الأسطورة	-0.0355307
-4.110421	الأسلوب	-0.03647482
-4.110421	الأسماء	-0.03536189
-4.110421	الأسمدة	-0.03647482
-4.110421	الأسيوية	-0.03536189
-3.809391	الأشخاص	-0.03488887
-4.110421	الأشقر	-0.03640745
-4.110421	الأصالة	-0.03647482
-4.110421	الأصل	-0.002727602
-3.809391	الأصليين	-0.03640745
-4.110421	الأصوات	-0.03644114
-4.110421	الأطرش	-0.03647482
-4.110421	الأطفال	-0.0267678
-4.110421	الأطلسي	-0.002727602
-4.110421	الأعراب	-0.03536189
-4.110421	الأعمى	-0.03647482
-4.110421	الأغلبية	-0.03563195
-4.110421	الأغنية	-0.03637376
-3.508361	الأفارقة	-0.03414452
-4.110421	الأفكار	-0.03640745
-4.110421	الأقدار	-0.03647482
-3.809391	الأقل	-0.03610416
-3.809391	الأقليات	-0.03532812
-4.110421	الأقوال	-0.02358741
-4.110421	الأكاديمي	-0.03647482
-3.809391	الأكثر	-0.03644113
-4.110421	الألوان	-0.03647482
-3.508361	الأم	-0.04584927
-3.809391	الأمازيغ	-0.03610416
-4.110421	الأمازيغي	-0.03647482
-3.33227	الأمازيغية	-0.0352268
-3.809391	الأمام	-0.002654783
-4.110421	الأماني	-0.03647482
-4.110421	الأمة	-0.03637376
-3.508361	الأمر	-0.03613786
-3.809391	الأمريكي	-0.03546318
-4.110421	الأمل	-0.03647482
-3.508361	الأمم	-0.2470067
-4.110421	الأمن	-0.03647482
-4.110421	الأمنية	-0.03586812
-4.110421	الأمية	-0.03644114
-3.809391	الأمير	-0.1646825
-4.110421	الأميركي	-0.002727602
-3.809391	الأن	-0.03610416
-4.110421	الأناضول	-0.03647482
-3.6333	الأنترنت	-0.02649215
-3.809391	الأندرويد	-0.03299165
-4.110421	الأنظمة	-0.03630638
-4.110421	الأنكى	-0.03461835
-4.110421	الأنوار	-0.03610416
-4.110421	الأهم	-0.02358741
-4.110421	الأو	-0.03620528
-4.110421	الأواخر	-0.03644114
-4.110421	الأوربيين	-0.0352268
-3.809391	الأوروبي	-0.03620528
-4.110421	الأوروبية	-0.03647482
-4.110421	الأوسط	-0.03647482
-4.110421	الأوفياء	-0.03647482
-3.6333	الأول	-0.002654776
-3.265323	الأولى	0.01174468
-3.6333	الأيام	-0.002545532
-4.110421	الأيقونة	-0.02358741
-4.110421	الإبادة	-0.03647482
-3.6333	الإتحاد	-0.03630637
-4.110421	الإتصالات	-0.03607045
-4.110421	الإتهام	-0.03647482
-3.6333	الإجتماعي	-0.001634106
-3.809391	الإجتماعية	-0.03637376
-4.110421	الإجمالي	-0.0330256
-4.110421	الإحباط	-0.002727602
-4.110421	الإحتكاك	-0.03630638
-4.110421	الإحسان	-0.03475364
-4.110421	الإختراع	-0.002727602
-3.809391	الإرادة	-0.002618372
-4.110421	الإرتقاء	-0.03640745
-4.110421	الإرهاب	-0.03647482
-4.110421	الإزعاج	-0.002727602
-4.110421	الإسباني	-0.03647482
-4.110421	الإسبانية	-0.03647482
-3.6333	الإستعمار	-0.002035372
-4.110421	الإستما	-0.002727602
-4.110421	الإسلام	-0.03613787
-3.6333	الإسلامية	-0.02317084
-4.110421	الإصلاح	-0.03647482
-4.110421	الإضراب	-0.002727602
-4.110421	الإعتقاد	-0.03461835
-3.508361	الإعلام	-0.03526057
-4.110421	الإعلامية	-0.03647482
-4.110421	الإفادة	-0.03634007
-3.6333	الإفريقي	-0.002399832
-3.6333	الإفريقية	-0.002618365
-3.809391	الإكتشاف	-0.03644113
-3.265323	الإلكتروني	-0.2258459
-3.809391	الإلكترونية	-0.0339413
-4.110421	الإله	-0.03569945
-4.110421	الإمام	-0.03647482
-4.110421	الإنتحار	-0.0359693
-3.809391	الإنتخابات	-0.03644113
-4.110421	الإنتخابية	-0.03630638
-4.110421	الإنترنت	-0.02358741
-4.110421	الإنجاب	-0.03647482
-3.809391	الإنجليزية	-0.130969
-4.110421	الإنجليزيه	-0.002727602
-4.110421	الإندماج	-0.03563195
-3.508361	الإنسان	-0.03549694
-4.110421	الإنسانية	-0.02358741
-4.110421	الإنقلابات	-0.03647482
-4.110421	الإنكشاري	-0.03640745
-4.110421	الإهتمام	-0.002727602
-4.110421	الإيطالية	-0.03613787
-3.33227	الا	-0.0732713
-3.069029	الاتحاد	-0.2024081
-3.809391	الاتصال	-0.03644113
-4.110421	الاجتماع	-0.03640745
-3.809391	الاجتماعي	-0.03640745
-3.809391	الاجتماعية	-0.002654783
-4.110421	الاحتفالات	-0.03647482
-4.110421	الاحزاب	-0.03630638
-4.110421	الاخ	-0.0267678
-4.110421	الاخبار	-0.03647482
-4.110421	الاختراق	-0.03647482
-4.110421	الاختيار	-0.03644114
-4.110421	الاخلاقي	-0.03623898
-4.110421	الاخوان	-0.03634007
-4.110421	الاخير	-0.03576692
-4.110421	الاخيرة	-0.03536189
-4.110421	الارضية	-0.03634007
-4.110421	الارملات	-0.0330256
-4.110421	الازمات	-0.03647482
-4.110421	الاسبانية	-0.03647482
-3.809391	الاستاذ	-0.03576692
-3.6333	الاستبداد	-0.002363402
-4.110421	الاستعانة	-0.03647482
-3.411451	الاستقلال	-0.03691373
-3.809391	الاستقلاليين	-0.03519301
-4.110421	الاستمرار	-0.02358741
-4.110421	الاسطوانة	-0.03647482
-4.110421	الاشاعات	-0.03647482
-3.265323	الاشتراكي	-0.1045695
-4.110421	الاشراك	-0.02358741
-3.6333	الاصدقاء	-0.0355982
-4.110421	الاعتقال	-0.03600302
-4.110421	الاعدام	-0.02358741
-4.110421	الاعلان	-0.03623898
-4.110421	الاغلبية	-0.03647482
-4.110421	الاغنية	-0.03613787
-4.110421	الافراح	-0.03647482
-4.110421	الاقتراع	-0.03644114
-4.110421	الالكترونية	-0.03620528
-4.110421	الامبريالية	-0.0359693
-4.110421	الامريكية	-0.03640745
-4.110421	الامنيات	-0.03647482
-4.110421	الان	-0.03647482
-4.110421	الاناضول	-0.03647482
-4.110421	الانتخاب	-0.03586812
-3.110421	الانتخابات	-0.008711722
-3.6333	الانتخابية	-0.03610415
-3.809391	الانترنت	-0.03640745
-4.110421	الانتصار	-0.03647482
-4.110421	الانتقال	-0.03634007
-4.110421	الانتكاسة	-0.03536189
-4.110421	الانتماء	-0.03647482
-4.110421	الاندماج	-0.02358741
-3.809391	الانسان	-0.03377187
-4.110421	الانقلاب	-0.02358741
-4.110421	الانقلابية	-0.03647482
-4.110421	الانكار	-0.03559821
-3.809391	الاول	-0.0342461
-4.110421	الايجابيات	-0.0330256
-3.809391	الايطالية	-0.0355982
-3.6333	البؤس	-0.03637375
-4.110421	الباتول	-0.002727602
-4.110421	البارح	-0.03637376
-4.110421	الباردة	-0.03647482
-4.110421	البارصا	-0.03613787
-4.110421	الباقي	-0.03647482
-4.110421	الباك	-0.03647482
-3.110421	البام	0.02395871
-3.110421	البجيدي	-0.0003182851
-3.6333	البحث	-0.03424609
-4.110421	البحر	-0.03647482
-3.508361	البخاري	0.003431674
-3.809391	البديل	-0.03590184
-4.110421	البر	-0.002727602
-4.110421	البرازيل	-0.03647482
-3.809391	البرد	-0.1646825
-4.110421	البرغماتي	-0.03644114
-3.809391	البرلمان	-0.03505787
-3.809391	البرلماني	0.01125567
-4.110421	البرلمانية	-0.03640745
-3.809391	البرلمانيين	-0.03563195
-3.508361	البرنامج	-0.09486747
-4.110421	البرنوصي	-0.03647482
-4.110421	البروفايل	-0.02358741
-4.110421	البزخ	-0.03623898
-4.110421	البزنس	-0.02358741
-4.110421	البساط	-0.03647482
-4.110421	البشري	-0.002727602
-3.809391	البشرية	-0.002618372
-3.265323	البصري	-0.1171726
-3.809391	البعثة	-0.03603673
-4.110421	البعرة	-0.03644114
-3.265323	البعض	0.0006345175
-4.110421	البكالوريا	-0.03640745
-3.508361	البلاد	-0.06169482
-4.110421	البلاغ	-0.03647482
-4.110421	البلاغات	-0.03640745
-3.809391	البلد	-0.03173356
-3.809391	البلوكاج	-0.03644113
-4.110421	البليدة	-0.03647482
-3.809391	البنات	-0.03488887
-4.110421	البنت	-0.03647482
-4.110421	البنكي	-0.03647482
-4.110421	البورجوازية	-0.03536189
-4.110421	البورفيل	-0.03627268
-4.110421	البوسان	-0.0330256
-4.110421	البوصلة	-0.03637376
-4.110421	البوعار	-0.002727602
-4.110421	البولا	-0.03644114
-4.110421	البولميك	-0.03644114
-4.110421	البوليزري	-0.0330256
-3.265323	البوليزريو	-0.01870253
-4.110421	البوليساريو	-0.0267678
-4.110421	البوليولو	-0.03627268
-4.110421	البيانات	-0.0267678
-4.110421	البيتزا	-0.03495649
-3.809391	البيجيدي	-0.03644113
-4.110421	البيرو	-0.002727602
-3.809391	البيض	-0.0234833
-3.207331	البيضاء	-0.1365001
-3.809391	البيضة	-0.1646825
-4.110421	البيولوجي	-0.03647482
-4.110421	الة	-0.03647482
-4.110421	التأسيسية	-0.03647482
-4.110421	التأهل	-0.03647482
-4.110421	التاء	-0.03647482
-4.110421	التابع	-0.03644114
-4.110421	التابعة	-0.03647482
-3.508361	التاريخ	-0.03461834
-4.110421	التاريخي	-0.03647482
-3.6333	التافهة	-0.02638875
-3.809391	التالي	-0.130969
-4.110421	التام	-0.03647482
-4.110421	التامل	-0.03647482
-4.110421	التبعية	-0.03647482
-4.110421	التجارة	-0.03630638
-4.110421	التجاري	-0.03647482
-4.110421	التجديدي	-0.03556446
-4.110421	التجربة	-0.03647482
-4.110421	التجمع	-0.002727602
-4.110421	التجهيل	-0.002727602
-4.110421	التحاق	-0.03613787
-4.110421	التحضيرية	-0.03647482
-3.809391	التحقيق	-0.02330974
-3.508361	التحكم	-0.02264958
-3.6333	التحليلات	-0.00258195
-4.110421	التحيات	-0.03647482
-4.110421	التخطيط	-0.03600302
-4.110421	التخلص	-0.0267678
-4.110421	التخلي	-0.03431381
-4.110421	التدبر	-0.03647482
-4.110421	التدبير	-0.03640745
-4.110421	التدخل	-0.02358741
-4.110421	التدليك	-0.03647482
-4.110421	الترابية	-0.02358741
-3.809391	الترشح	-0.03644113
-4.110421	التركي	-0.03647482
-4.110421	التركية	-0.03647482
-4.110421	التساؤلات	-0.0352268
-4.110421	التسلط	-0.03627268
-4.110421	التسيب	-0.03640745
-4.110421	التشادي	-0.03647482
-3.809391	التصويت	-0.03640745
-3.809391	التضامن	-0.162995
-4.110421	التطبيقات	-0.002727602
-4.110421	التطرف	-0.03647482
-4.110421	التطور	-0.03647482
-4.110421	التعايش	-0.03647482
-4.110421	التعبير	-0.03431381
-4.110421	التعدد	-0.03644114
-4.110421	التعليق	-0.03644114
-4.110421	التعليقات	-0.03180166
-3.156179	التعليم	-0.04697492
-4.110421	التعليمي	-0.03644114
-4.110421	التعميرية	-0.03637376
-4.110421	التعويض	-0.002727602
-4.110421	التغريدة	-0.03421225
-3.809391	التغطية	-0.1646488
-4.110421	التغيير	-0.03556446
-3.809391	التفاصيل	-0.03630637
-4.110421	التفريق	-0.03590185
-4.110421	التفوق	-0.03647482
-4.110421	التقارير	-0.03536189
-4.110421	التقاعد	-0.03647482
-4.110421	التقدم	-0.03647482
-3.809391	التقرير	-0.03644113
-4.110421	التقني	-0.03647482
-4.110421	التقيتها	-0.03647482
-4.110421	التكنلوجي	-0.02358741
-4.110421	التكيملي	-0.03647482
-4.110421	التلاعب	-0.02358741
-4.110421	التلسكوبات	-0.03647482
-3.508361	التلفزيون	-0.03566569
-3.809391	التلفزيوني	-0.03623898
-4.110421	التلميذ	-0.03647482
-4.110421	التمركز	-0.03180166
-4.110421	التمسك	-0.03647482
-4.110421	التمييز	-0.03590185
-4.110421	التنوع	-0.03647482
-4.110421	التنويري	-0.03647482
-4.110421	التهاني	-0.03647482
-4.110421	التهجم	-0.03180166
-4.110421	التهريب	-0.03647482
-4.110421	التهنئة	-0.03647482
-3.6333	التواصل	-0.02659554
-4.110421	التوالد	-0.03620528
-4.110421	التونسية	-0.002727602
-2.578943	التي	-0.007850457
-4.110421	التيار	-0.03647482
-3.809391	التيجيني	-0.002691191
-4.110421	الثالث	-0.03640745
-4.110421	الثالثة	-0.03647482
-3.33227	الثاني	0.001295373
-3.809391	الثانية	-0.03634007
-3.809391	الثروة	-0.0352268
-4.110421	الثقافة	-0.03634007
-3.809391	الثقافي	-0.03644113
-4.110421	الثقافية	-0.03640745
-4.110421	الثلاث	-0.03647482
-4.110421	الثلاثاء	-0.03431381
-4.110421	الثمانينيات	-0.03556446
-4.110421	الثنائية	-0.03647482
-3.6333	الثورة	-0.002654776
-4.110421	الثورية	-0.03640745
-4.110421	الجابري	-0.03556446
-4.110421	الجالية	-0.03647482
-3.6333	الجامعي	-0.03404291
-4.110421	الجامعية	-0.03644114
-4.110421	الجبال	-0.03647482
-4.110421	الجبهة	-0.03637376
-4.110421	الجداد	-0.002727602
-4.110421	الجدد	-0.03644114
-4.110421	الجدل	-0.03647482
-3.6333	الجديد	-0.02167489
-3.809391	الجديدة	-0.03603673
-4.110421	الجرائد	-0.03620528
-4.110421	الجرائم	-0.03586812
-3.6333	الجزائر	-0.03569943
-3.6333	الجزيرة	-0.03566569
-4.110421	الجسمي	-0.03640745
-4.110421	الجلابة	-0.03620528
-4.110421	الجلالة	-0.03644114
-4.110421	الجلدة	-0.03421225
-3.809391	الجماعة	-0.0355982
-4.110421	الجماعي	-0.002727602
-4.110421	الجماعية	-0.03536189
-4.110421	الجمر	-0.03647482
-3.6333	الجمعة	-0.03292373
-4.110421	الجمعيات	-0.03647482
-4.110421	الجمعية	-0.03620528
-3.809391	الجميع	-0.03634007
-4.110421	الجميل	-0.03610416
-4.110421	الجميلة	-0.034686
-4.110421	الجن	-0.03647482
-4.110421	الجنائز	-0.03647482
-3.6333	الجنائي	-0.03302559
-4.110421	الجنة	-0.03583439
-4.110421	الجندي	-0.002727602
-3.809391	الجنس	-0.03637376
-4.110421	الجنسيات	-0.03647482
-4.110421	الجنوب	-0.03647482
-3.809391	الجنوبية	-0.03644113
-4.110421	الجهد	-0.03640745
-4.110421	الجهوية	-0.02358741
-3.809391	الجواب	-0.03637376
-4.110421	الجوفية	-0.002727602
-4.110421	الجولات	-0.03640745
-4.110421	الجيج	-0.03546318
-4.110421	الجيش	-0.03647482
-4.110421	الجيل	-0.03637376
-4.110421	الح	-0.03600302
-4.110421	الحائط	-0.03559821
-4.110421	الحاج	-0.002727602
-4.110421	الحادث	-0.03623898
-4.110421	الحارة	-0.03640745
-4.110421	الحاقيقية	-0.03586812
-3.809391	الحاكم	-0.03593557
-4.110421	الحال	-0.03647482
-3.6333	الحالة	-0.002509113
-3.809391	الحالي	-0.03542942
-4.110421	الحالية	-0.03634007
-3.156179	الحب	-0.03488887
-4.110421	الحبل	-0.03647482
-4.110421	الحداثة	-0.002727602
-4.110421	الحداثوية	-0.03647482
-4.110421	الحداگة	-0.03536189
-4.110421	الحدث	-0.03647482
-4.110421	الحدودية	-0.03647482
-4.110421	الحديث	-0.02358741
-3.809391	الحراك	-0.03634007
-4.110421	الحرب	-0.03613787
-4.110421	الحربية	-0.03647482
-4.110421	الحرة	-0.03613787
-4.110421	الحرس	-0.03630638
-4.110421	الحرشة	-0.002727602
-4.110421	الحركة	-0.03640745
-3.809391	الحريات	-0.03586812
-3.809391	الحرية	-0.03637376
-3.265323	الحزب	-0.02310137
-4.110421	الحزبي	-0.03647482
-4.110421	الحساسية	-0.002727602
-4.110421	الحسم	-0.02358741
-3.6333	الحسن	-0.08366893
-3.809391	الحسيمة	-0.002108295
-4.110421	الحسين	-0.03637376
-4.110421	الحشيش	-0.002727602
-4.110421	الحصار	-0.002727602
-4.110421	الحضارية	-0.03536189
-4.110421	الحظوة	-0.03647482
-3.809391	الحق	-0.0235527
-3.809391	الحقائق	-0.002691191
-4.110421	الحقل	-0.002727602
-4.110421	الحقوق	-0.03640745
-4.110421	الحقوقيات	-0.0267678
-4.110421	الحقوقية	-0.03647482
-3.6333	الحقيقة	-0.02666445
-3.069029	الحكرة	-0.5038803
-3.809391	الحكم	-0.02659555
-3.809391	الحكومات	-0.023518
-2.695448	الحكومة	-0.008323781
-4.110421	الحكومي	-0.002727602
-4.110421	الحكومية	-0.002727602
-3.809391	الحل	-0.001743589
-4.110421	الحلال	-0.03637376
-4.110421	الحلزونة	-0.0330256
-4.110421	الحلف	-0.03647482
-4.110421	الحلقة	-0.03647482
-4.110421	الحلوين	-0.002727602
-4.110421	الحمد	-0.03644114
-4.110421	الحمدلله	-0.03613787
-3.411451	الحملة	-0.0343815
-4.110421	الحمى	-0.03640745
-4.110421	الحناك	-0.03647482
-4.110421	الحوادث	-0.03647482
-4.110421	الحوار	-0.03647482
-4.110421	الحوايج	-0.03647482
-4.110421	الحوث	-0.03583439
-3.809391	الحياة	-0.03623898
-4.110421	الحيف	-0.03431381
-4.110421	الحيوانات	-0.03536189
-4.110421	الخ	-0.002727602
-3.508361	الخارجية	-0.09571066
-3.809391	الخاص	-0.03499028
-3.265323	الخاصة	-0.03359222
-4.110421	الخام	-0.002727602
-4.110421	الخامس	-0.03647482
-4.110421	الخبر	-0.03637376
-3.809391	الخبز	-0.03644113
-4.110421	الخدمات	-0.03637376
-3.809391	الخدمة	-0.03285582
-4.110421	الخروج	-0.03647482
-4.110421	الخصوبة	-0.03634007
-4.110421	الخصوصي	-0.03644114
-3.809391	الخطأ	-0.03644113
-4.110421	الخطريين	-0.03421225
-3.809391	الخطير	-0.03644113
-4.110421	الخلافات	-0.03647482
-4.110421	الخلف	-0.002727602
-3.809391	الخليج	-0.002691191
-4.110421	الخوانجية	-0.03647482
-4.110421	الخوت	-0.03475364
-4.110421	الخوف	-0.03644114
-4.110421	الخونة	-0.03647482
-4.110421	الخياشيم	-0.03637376
-3.809391	الخير	-0.03644113
-4.110421	الداخلي	-0.03647482
-3.508361	الداخلية	-0.03630637
-3.508361	الدار	-0.2469056
-4.110421	الدارجة	-0.0267678
-4.110421	الداعم	-0.03647482
-4.110421	الدافع	-0.03640745
-3.809391	الدخول	-0.03509166
-3.809391	الدراري	-0.1631979
-4.110421	الدراز	-0.03623898
-4.110421	الدراسة	-0.03647482
-4.110421	الدرب	-0.03647482
-4.110421	الدرس	-0.03644114
-3.6333	الدرهم	-0.002399836
-4.110421	الدروس	-0.03647482
-3.809391	الدستور	-0.02330974
-3.6333	الدستوري	-0.001634106
-4.110421	الدستورية	-0.03634007
-4.110421	الدعم	-0.03647482
-4.110421	الدفاع	-0.03647482
-4.110421	الدكتاتورية	-0.03644114
-4.110421	الدكتور	-0.03586812
-4.110421	الدليل	-0.03180166
-4.110421	الدم	-0.002727602
-4.110421	الدمار	-0.03647482
-3.6333	الدور	-0.1172977
-3.411451	الدول	-0.03610415
-3.03124	الدولة	-0.003160119
-3.411451	الدولي	-0.03156327
-3.6333	الدولية	-0.002254084
-4.110421	الديسليكسيا	-0.03647482
-3.809391	الديكتاتوريين	-0.03630637
-3.809391	الديمقراطي	-0.03644113
-4.110421	الديمقراطيات	-0.03647482
-4.110421	الديمقراطية	-0.02358741
-3.411451	الديموقراطي	-0.03522679
-3.6333	الديموقراطية	-0.03637375
-4.110421	الدين	-0.002727602
-4.110421	الديني	-0.03647482
-4.110421	الديوان	-0.03630638
-4.110421	الذات	-0.03647482
-3.809391	الذكرى	-0.03441535
-4.110421	الذكي	-0.03647482
-3.6333	الذكية	-0.03499027
-4.110421	الذوقي	-0.03647482
-2.663263	الذي	-0.02985668
-3.110421	الذين	-0.03610415
-3.508361	الرأي	-0.03593557
-4.110421	الرئاسة	-0.03610416
-4.110421	الرئيس	-0.002727602
-3.809391	الرابط	-0.002654783
-3.809391	الرابع	-0.03634007
-4.110421	الراغبين	-0.02358741
-4.110421	الراهن	-0.03647482
-3.809391	الرب	-0.03640745
-3.207331	الرباط	-0.1006769
-4.110421	الرباعي	-0.03647482
-4.110421	الربع	-0.002727602
-3.809391	الرجال	-0.03492268
-4.110421	الرجعية	-0.002727602
-3.6333	الرجل	-0.03637375
-4.110421	الرحالة	-0.03586812
-4.110421	الرحمن	-0.03647482
-4.110421	الرحيم	-0.002727602
-4.110421	الرحيمة	-0.002727602
-4.110421	الردح	-0.03647482
-4.110421	الرسائل	-0.03647482
-4.110421	الرسالة	-0.03644114
-4.110421	الرساله	-0.03644114
-4.110421	الرسمي	-0.03647482
-3.809391	الرسمية	-0.001998916
-4.110421	الرصاص	-0.03180166
-3.6333	الرفيق	-0.03603672
-4.110421	الركح	-0.002727602
-4.110421	الركوب	-0.03180166
-4.110421	الرمز	-0.03644114
-3.809391	الرميد	-0.002581958
-4.110421	الروبوتات	-0.03613787
-4.110421	الرومانسية	-0.03647482
-4.110421	الروهينغا	-0.03556446
-3.809391	الرياضي	-0.03607044
-3.809391	الريف	-0.130969
-4.110421	الزاهية	-0.002727602
-4.110421	الزروالي	-0.03647482
-4.110421	الزعل	-0.03647482
-3.809391	الزمان	-0.002509121
-4.110421	الزمن	-0.03647482
-4.110421	الزميل	-0.03647482
-4.110421	الزنقة	-0.03647482
-4.110421	الزهر	-0.03647482
-4.110421	الزواج	-0.02358741
-4.110421	الزوجات	-0.002727602
-4.110421	الزين	-0.03180166
-4.110421	الس	-0.03640745
-3.6333	السؤال	-0.03526057
-4.110421	السؤدد	-0.03647482
-4.110421	السابع	-0.034686
-3.809391	السابق	-0.03637376
-4.110421	الساحلي	-0.03647482
-3.411451	السادس	0.01287526
-4.110421	الساسة	-0.03634007
-3.6333	الساعة	-0.03634006
-4.110421	الساقي	-0.03647482
-4.110421	السامونة	-0.03647482
-4.110421	السببين	-0.03647482
-3.6333	السبت	-0.03583438
-4.110421	السبع	-0.03640745
-3.6333	السبعة	-0.001195941
-4.110421	السجائر	-0.03647482
-4.110421	السحابه	-0.03647482
-3.809391	السراغنة	-0.1646825
-4.110421	السراق	-0.03647482
-4.110421	السرعة	-0.03647482
-4.110421	السري	-0.03647482
-4.110421	السرير	-0.002727602
-4.110421	السطاج	-0.03647482
-4.110421	السطحية	-0.03644114
-4.110421	السعادة	-0.03647482
-3.809391	السعودية	-0.130969
-3.809391	السفر	-0.03074494
-3.809391	السكان	-0.002654783
-4.110421	السكني	-0.03644114
-3.6333	السلاح	-0.03238006
-4.110421	السلاطين	-0.002727602
-3.809391	السلام	-0.03644113
-4.110421	السلبيات	-0.002727602
-4.110421	السلطان	-0.002727602
-3.809391	السلطة	0.00103825
-4.110421	السلطنة	-0.03583439
-3.809391	السلطوية	-0.02330974
-3.809391	السلفية	-0.03644113
-4.110421	السلم	-0.03647482
-4.110421	السمراء	-0.03647482
-4.110421	السمندل	-0.03647482
-4.110421	السموني	-0.02358741
-4.110421	السن	-0.03644114
-3.6333	السنة	-0.03623897
-3.6333	السنوات	-0.03630637
-4.110421	السنوبيزم	-0.0330256
-3.6333	السنين	-0.03637375
-4.110421	السود	-0.03644114
-3.809391	السودان	-0.002691191
-3.809391	السورية	-0.002654783
-4.110421	السوريون	-0.03623898
-4.110421	السوسيون	-0.02358741
-3.809391	السوق	-0.002654783
-4.110421	السويد	-0.03644114
-4.110421	السيادة	-0.03640745
-3.411451	السيارات	-0.0219536
-4.110421	السيارة	-0.02358741
-4.110421	السياسات	-0.03647482
-3.069029	السياسة	-0.08278245
-2.996478	السياسي	-0.01491876
-3.156179	السياسية	-0.04060576
-3.809391	السياسيين	-0.03640745
-4.110421	السياق	-0.03623898
-3.508361	السيد	-0.002363406
-4.110421	السيدة	-0.03630638
-3.809391	السير	-0.002436269
-3.809391	السيسي	-0.03644113
-4.110421	السيناريوهات	-0.03647482
-4.110421	الش	-0.03647482
-4.110421	الشؤون	-0.03647482
-4.110421	الشافعي	-0.0267678
-4.110421	الشام	-0.03627268
-4.110421	الشان	-0.002727602
-3.33227	الشباب	-0.001524616
-4.110421	الشبح	-0.03556446
-4.110421	الشتا	-0.03640745
-4.110421	الشتاء	-0.002727602
-3.6333	الشتائم	-0.03173355
-4.110421	الشتوية	-0.002727602
-4.110421	الشخصي	-0.03549694
-4.110421	الشخصيات	-0.03647482
-4.110421	الشديد	-0.03627268
-4.110421	الشر	-0.03647482
-4.110421	الشرارة	-0.03627268
-3.508361	الشرطة	-0.03610415
-4.110421	الشرق	-0.03647482
-3.809391	الشرقاوي	-0.001342054
-4.110421	الشركات	-0.03637376
-3.6333	الشركة	-0.03640744
-4.110421	الشريفة	-0.03536189
-3.809391	الشعارات	-0.03644113
-3.411451	الشعب	-0.03529434
-4.110421	الشعبوية	-0.02358741
-4.110421	الشعبي	-0.03644114
-3.6333	الشعبية	-0.002654776
-4.110421	الشعوب	-0.002727602
-4.110421	الشقيقة	-0.002727602
-4.110421	الشكلاط	-0.002727602
-4.110421	الشهادة	-0.03634007
-3.809391	الشهر	-0.0235527
-4.110421	الشهرة	-0.03647482
-3.411451	الشهيد	-0.195335
-3.809391	الشهير	-0.001998916
-4.110421	الشهيرة	-0.03644114
-3.508361	الشوباني	-0.06202266
-3.809391	الشي	-0.03644113
-3.809391	الشيء	-0.0234833
-3.6333	الشيخ	-0.1175336
-3.809391	الشيفور	-0.03532812
-4.110421	الشينوا	-0.03623898
-4.110421	الصادرة	-0.02358741
-4.110421	الصاع	-0.03647482
-4.110421	الصالير	-0.02358741
-4.110421	الصح	-0.002727602
-4.110421	الصحافة	-0.03647482
-4.110421	الصحافيين	-0.0356657
-2.93433	الصحراء	-0.08184989
-4.110421	الصحفي	-0.03647482
-4.110421	الصحفيين	-0.03647482
-3.6333	الصحية	-0.03563194
-4.110421	الصدقة	-0.002727602
-4.110421	الصديق	-0.03644114
-4.110421	الصديقة	-0.03647482
-4.110421	الصديقي	-0.002727602
-4.110421	الصراحة	-0.03634007
-3.508361	الصراع	-0.02951454
-4.110421	الصغار	-0.03647482
-4.110421	الصف	-0.03644114
-4.110421	الصميم	-0.002727602
-4.110421	الصناعة	-0.0330256
-4.110421	الصناعو	-0.03647482
-4.110421	الصناعي	-0.03647482
-3.809391	الصهريج	-0.1646825
-4.110421	الصوتية	-0.03647482
-3.809391	الصور	-0.03644113
-4.110421	الصورة	-0.03475364
-4.110421	الصولد	-0.03637376
-3.809391	الصين	-0.03637376
-4.110421	الصيني	-0.03647482
-4.110421	الضاد	-0.03637376
-4.110421	الضجة	-0.0330256
-4.110421	الضحايا	-0.0267678
-4.110421	الضرائب	-0.002727602
-4.110421	الضرب	-0.02358741
-3.809391	الضغط	-0.0316314
-4.110421	الط	-0.03634007
-4.110421	الطائر	-0.03644114
-4.110421	الطائرات	-0.002727602
-4.110421	الطائف	-0.03647482
-4.110421	الطاقة	-0.002727602
-3.809391	الطالبي	-0.1646151
-4.110421	الطاهر	-0.03647482
-4.110421	الطاولة	-0.002727602
-4.110421	الطب	-0.03644114
-3.6333	الطبقة	-0.3803049
-4.110421	الطرابيش	-0.03647482
-3.6333	الطرق	-0.03637375
-3.6333	الطريق	-0.03159733
-4.110421	الطـريـق	-0.03647482
-4.110421	الطفل	-0.03644114
-4.110421	الطفولة	-0.03644114
-3.809391	الطلبة	-0.03634007
-4.110421	الطوارئ	-0.03634007
-4.110421	الطوارق	-0.03644114
-4.110421	الطوغو	-0.03634007
-4.110421	الطوموبيل	-0.002727602
-4.110421	الظرافات	-0.03647482
-4.110421	الظرف	-0.03647482
-4.110421	الظروف	-0.03556446
-4.110421	الظلم	-0.002727602
-4.110421	الظهر	-0.03640745
-4.110421	الظهور	-0.02358741
-4.110421	الع	-0.03647482
-4.110421	العائلة	-0.03647482
-4.110421	العادة	-0.02358741
-4.110421	العادي	-0.02358741
-3.809391	العار	-0.03519301
-4.110421	العارف	-0.03644114
-4.110421	العارية	-0.034686
-4.110421	العاشر	-0.0267678
-4.110421	العاشقين	-0.03647482
-4.110421	العاطلين	-0.0356657
-2.996478	العالم	-0.0593235
-4.110421	العالمي	-0.03637376
-3.110421	العام	0.007512379
-4.110421	العامة	-0.03647482
-4.110421	العبارات	-0.002727602
-4.110421	العبث	-0.03647482
-3.6333	العبيد	-0.02348329
-4.110421	العتاد	-0.0330256
-3.6333	العثماني	0.01129327
-4.110421	العثمانين	-0.03647482
-3.110421	العدالة	-0.7012969
-3.6333	العدد	-0.03573317
-4.110421	العددية	-0.03647482
-3.508361	العدل	-0.2657033
-3.809391	العديد	-0.03596929
-4.110421	العذاب	-0.03630638
-4.110421	العذرية	-0.03644114
-4.110421	العرائش	-0.002727602
-4.110421	العراق	-0.03640745
-4.110421	العراقي	-0.03647482
-3.809391	العرب	-0.02673335
-3.809391	العربي	-0.03620528
-2.855149	العربية	-0.02175578
-4.110421	العروبية	-0.03563195
-4.110421	العروي	-0.03647482
-4.110421	العرى	-0.03180166
-4.110421	العز	-0.03536189
-3.809391	العزاء	-0.03640745
-4.110421	العزة	-0.03640745
-4.110421	العزيزة	-0.03647482
-4.110421	العشابي	-0.03644114
-3.809391	العشر	-0.03623898
-4.110421	العشرة	-0.03644114
-4.110421	العصاميون	-0.03647482
-4.110421	العصور	-0.03647482
-4.110421	العطاوية	-0.002727602
-4.110421	العظماء	-0.03647482
-4.110421	العظمى	-0.002727602
-4.110421	العظيم	-0.03640745
-4.110421	العقيم	-0.03475364
-4.110421	العقيمة	-0.0267678
-4.110421	العلاقات	-0.03640745
-4.110421	العلاقة	-0.03593557
-3.6333	العلم	-0.03356846
-4.110421	العلماء	-0.03634007
-4.110421	العلمانية	-0.03610416
-3.508361	العلمي	-0.03630637
-3.809391	العلوم	-0.002691191
-4.110421	العلي	-0.03647482
-4.110421	العمارة	-0.03536189
-3.6333	العمال	-0.02348329
-4.110421	العمق	-0.03613787
-3.6333	العمل	-0.036003
-3.6333	العمومي	-0.02317084
-3.6333	العمومية	0.01170705
-4.110421	العموميية	-0.03647482
-4.110421	العميق	-0.02358741
-4.110421	العنب	-0.002727602
-4.110421	العنصر	-0.03627268
-3.6333	العنصري	0.01136847
-3.6333	العنصرية	-0.03623897
-3.6333	العنف	-0.1046431
-4.110421	العنوان	-0.002727602
-4.110421	العولمة	-0.002727602
-4.110421	العوينة	-0.03634007
-4.110421	العياشة	-0.03617158
-4.110421	العياقة	-0.0330256
-4.110421	العيب	-0.03623898
-4.110421	العيد	-0.03647482
-4.110421	العيش	-0.03580066
-4.110421	العيوب	-0.03647482
-4.110421	الغ	-0.03647482
-4.110421	الغاء	-0.03647482
-4.110421	الغايب	-0.03647482
-4.110421	الغباء	-0.03644114
-4.110421	الغرائز	-0.03647482
-4.110421	الغرب	-0.03640745
-4.110421	الغربية	-0.03610416
-3.508361	الغريب	-0.09144421
-4.110421	الغزل	-0.03647482
-4.110421	الغزو	-0.03647482
-4.110421	الغش	-0.02358741
-4.110421	الغنية	-0.03630638
-3.809391	الغوغاء	-0.03644113
-4.110421	الغوغائيين	-0.03556446
-4.110421	الغير	-0.03647482
-4.110421	الغيورين	-0.03180166
-3.6333	الـ	-0.083851
-4.110421	الـــبـــيــان	-0.03647482
-4.110421	الـــخـــتـــامــــي	-0.002727602
-4.110421	الـﯕـمل	-0.03647482
-4.110421	الفائدة	-0.0267678
-4.110421	الفائز	-0.03647482
-4.110421	الفاتح	-0.03644114
-4.110421	الفاخره	-0.03647482
-4.110421	الفارغ	-0.002727602
-4.110421	الفارغة	-0.002727602
-4.110421	الفاسدة	-0.03644114
-3.6333	الفاشلة	-0.03159733
-3.809391	الفايسبوك	-0.03586812
-4.110421	الفتنة	-0.03647482
-4.110421	الفرايكية	-0.03644114
-4.110421	الفرحة	-0.03536189
-4.110421	الفرق	-0.03590185
-4.110421	الفرقاني	-0.002727602
-4.110421	الفرنجة	-0.0330256
-3.809391	الفرنسي	-0.002472699
-3.03124	الفرنسية	-0.04002025
-4.110421	الفرنسيون	-0.03647482
-3.6333	الفرنسيين	-0.02666445
-4.110421	الفريق	-0.03630638
-4.110421	الفسحة	-0.03546318
-3.809391	الفشل	-0.1518288
-3.411451	الفضاء	-0.03546318
-4.110421	الفضائية	-0.03647482
-4.110421	الفضيل	-0.03634007
-4.110421	الفطور	-0.03647482
-4.110421	الفعفاع	-0.03576692
-4.110421	الفعل	-0.03644114
-4.110421	الفقير	-0.03640745
-3.809391	الفقيرة	-0.03627268
-4.110421	الفقيهة	-0.03647482
-3.809391	الفكرة	-0.03458452
-4.110421	الفلق	-0.002727602
-4.110421	الفلك	-0.03647482
-3.809391	الفلوس	-0.03640745
-3.809391	الفنان	-0.03617157
-4.110421	الفوضى	-0.03644114
-4.110421	الفوق	-0.002727602
-4.110421	الفيتنام	-0.03180166
-3.6333	الفيديو	-0.002654776
-4.110421	الفيديوهات	-0.03640745
-3.207331	الفيسبوك	-0.001415089
-4.110421	الفيلم	-0.03644114
-4.110421	القائمة	-0.03421225
-4.110421	القاتل	-0.03647482
-4.110421	القارة	-0.03647482
-4.110421	القاضي	-0.03647482
-4.110421	القاع	-0.03647482
-4.110421	القاعدي	-0.03640745
-3.6333	القانون	-0.3803049
-4.110421	القاهرة	-0.03647482
-4.110421	القباج	-0.0267678
-4.110421	القبل	-0.03647482
-4.110421	القبول	-0.03647482
-4.110421	القتلى	-0.03640745
-4.110421	القتيل	-0.03647482
-4.110421	القدام	-0.0355307
-4.110421	القدرة	-0.03180166
-4.110421	القدم	-0.03640745
-4.110421	القدير	-0.03461835
-4.110421	القديم	-0.03647482
-4.110421	القذافي	-0.03610416
-4.110421	القراءة	-0.03637376
-3.6333	القرار	-0.03640744
-4.110421	القراية	-0.03644114
-4.110421	القرطاس	-0.03647482
-3.809391	القرن	-0.03637376
-4.110421	القصة	-0.03640745
-4.110421	القصص	-0.03647482
-4.110421	القصور	-0.03647482
-4.110421	القصيرة	-0.03647482
-3.809391	القضاء	-0.03644113
-3.809391	القضية	-0.03634007
-4.110421	القطية	-0.03586812
-3.809391	القلب	-0.1646825
-4.110421	القلوب	-0.03647482
-3.6333	القمر	-0.03566569
-4.110421	القناة	-0.03644114
-4.110421	القنيطرة	-0.03644114
-3.809391	القول	-0.032618
-4.110421	القوميين	-0.03627268
-4.110421	القيام	-0.03644114
-4.110421	القيامة	-0.03647482
-4.110421	الكابة	-0.002727602
-4.110421	الكاتبة	-0.03634007
-3.809391	الكارثة	-0.03465217
-4.110421	الكارو	-0.03647482
-4.110421	الكاف	-0.03471982
-4.110421	الكامل	-0.03647482
-4.110421	الكاملة	-0.03647482
-4.110421	الكبرى	-0.03630638
-4.110421	الكتاب	-0.03647482
-4.110421	الكتابة	-0.02358741
-4.110421	الكتب	-0.03610416
-3.809391	الكثير	-0.02493846
-4.110421	الكذبة	-0.03640745
-3.6333	الكرامة	-0.03634006
-3.809391	الكراهية	-0.03640745
-3.809391	الكرة	-0.03580065
-4.110421	الكرتونية	-0.02358741
-4.110421	الكرفي	-0.03647482
-4.110421	الكفاءة	-0.03647482
-4.110421	الكل	-0.002727602
-3.809391	الكلام	-0.03299165
-4.110421	الكلمة	-0.002727602
-4.110421	الكميون	-0.03644114
-4.110421	الكندية	-0.03647482
-4.110421	الكوار	-0.03593557
-4.110421	الكواكب	-0.03640745
-4.110421	الكواكبي	-0.002727602
-4.110421	الكواليس	-0.03549694
-4.110421	الكوبية	-0.03647482
-4.110421	الكورية	-0.03644114
-4.110421	الكونغرس	-0.03647482
-4.110421	الكويت	-0.03647482
-4.110421	الكيلومتر	-0.002727602
-4.110421	اللائحة	-0.03647482
-3.809391	اللاجئين	-0.0235527
-4.110421	اللاخر	-0.03634007
-4.110421	اللبنانية	-0.03647482
-3.809391	اللحظات	-0.03532812
-3.809391	اللذة	-0.03593557
-4.110421	اللطيف	-0.03647482
-4.110421	اللغا	-0.03634007
-4.110421	اللغات	-0.03647482
-2.996478	اللغة	-0.5472453
-4.110421	اللغوي	-0.03647482
-4.110421	اللقاء	-0.03644114
-4.110421	اللمس	-0.03647482
-2.679058	الله	-0.09321586
-3.809391	اللهم	-0.03640745
-4.110421	اللوائح	-0.03640745
-3.069029	اللي	-0.03214199
-4.110421	الليل	-0.03647482
-4.110421	الليلي	-0.02358741
-3.508361	الم	-0.2318751
-3.809391	المؤامرات	-0.03644113
-3.809391	المؤامرة	-0.03596929
-3.809391	المؤتمر	-0.03623898
-4.110421	المؤثرين	-0.02358741
-4.110421	المؤخدات	-0.03647482
-4.110421	المؤرخ	-0.002727602
-3.33227	المؤسسات	-0.002472699
-4.110421	المؤسساتي	-0.03647482
-4.110421	المؤسسة	-0.03180166
-4.110421	المؤسف	-0.03461835
-4.110421	المؤشرات	-0.03647482
-4.110421	المؤمنين	-0.002727602
-4.110421	المؤيدين	-0.03623898
-4.110421	المئات	-0.0267678
-4.110421	المازوط	-0.002727602
-4.110421	الماضي	-0.03515923
-3.809391	الماضية	-0.03623898
-3.809391	الماكلة	-0.02673335
-3.207331	المال	-0.1019179
-3.809391	المالكي	-0.03640745
-4.110421	المالوف	-0.02358741
-4.110421	المبادرة	-0.03640745
-4.110421	المباشر	-0.002727602
-4.110421	المبالغة	-0.03644114
-4.110421	المبكيات	-0.002727602
-4.110421	المبني	-0.03180166
-3.411451	المتحدة	-0.195065
-4.110421	المتحمس	-0.03617158
-4.110421	المتخصصة	-0.03637376
-4.110421	المتخلف	-0.03640745
-4.110421	المتخلفة	-0.03647482
-4.110421	المتدربين	-0.03640745
-4.110421	المتزوجات	-0.03421225
-4.110421	المتزوجين	-0.03556446
-4.110421	المتشائمين	-0.002727602
-3.265323	المتطرف	-0.1390538
-4.110421	المتطرفين	-0.03647482
-4.110421	المتعاطفين	-0.03623898
-4.110421	المتفوقي	-0.002727602
-4.110421	المتقدمة	-0.002727602
-4.110421	المتقن	-0.03644114
-4.110421	المتهافتين	-0.03644114
-4.110421	المتوحشة	-0.0267678
-3.6333	المتوسطة	-0.03627267
-4.110421	المثال	-0.002727602
-4.110421	المثقف	-0.03556446
-3.809391	المثل	-0.02337917
-4.110421	المجال	-0.03607045
-3.508361	المجتمع	-0.002618369
-4.110421	المجتمعات	-0.03647482
-4.110421	المجلات	-0.03640745
-4.110421	المجهولة	-0.03647482
-3.809391	المحافظين	-0.0355307
-4.110421	المحاولة	-0.03647482
-4.110421	المحبة	-0.03647482
-3.809391	المحترف	-0.03607044
-4.110421	المحقق	-0.03640745
-4.110421	المحلي	-0.03647482
-4.110421	المحيط	-0.002727602
-4.110421	المخاطر	-0.03634007
-4.110421	المختلطة	-0.03647482
-3.069029	المخزن	-0.001707103
-4.110421	المخزنية	-0.02358741
-4.110421	المخزي	-0.034686
-4.110421	المخطوبات	-0.0330256
-3.809391	المخيف	-0.03431381
-3.33227	المدارس	-0.8143228
-3.809391	المدرسة	-0.1646488
-4.110421	المدرسي	-0.03647482
-4.110421	المدن	-0.03536189
-3.6333	المدنية	-0.03617157
-4.110421	المدير	-0.03647482
-4.110421	المذلول	-0.03580066
-4.110421	المر	-0.03637376
-3.508361	المرأة	-0.03475363
-4.110421	المرايا	-0.03627268
-4.110421	المربوطة	-0.03647482
-4.110421	المرجو	-0.03647482
-3.6333	المرحلة	-0.1173988
-3.809391	المرحلي	-0.03644113
-3.809391	المرزوقي	-0.1550092
-4.110421	المرشح	-0.03644114
-4.110421	المزايدات	-0.03647482
-4.110421	المزايدة	-0.03180166
-4.110421	المزدوجة	-0.03647482
-4.110421	المزيفة	-0.002727602
-4.110421	المس	-0.03647482
-4.110421	المسؤول	-0.03644114
-4.110421	المسؤولين	-0.002727602
-4.110421	المساعدات	-0.03647482
-4.110421	المسامحة	-0.002727602
-4.110421	المساهمة	-0.02358741
-4.110421	المستجوبين	-0.03647482
-4.110421	المستحبه	-0.03647482
-4.110421	المستحيلات	-0.03586812
-4.110421	المستخدمين	-0.03647482
-4.110421	المستشار	-0.03630638
-4.110421	المستشارين	-0.002727602
-4.110421	المستعمر	-0.02358741
-4.110421	المستفيدين	-0.0267678
-4.110421	المستقلة	-0.02358741
-4.110421	المستهدف	-0.03647482
-4.110421	المستوردة	-0.002727602
-3.508361	المستوى	-0.03620527
-4.110421	المستويات	-0.03644114
-3.809391	المسخ	-0.002254091
-4.110421	المسخر	-0.03647482
-4.110421	المسلحين	-0.03617158
-3.809391	المسلم	-0.1646488
-4.110421	المسلمون	-0.02358741
-3.6333	المسلمين	-0.1046084
-4.110421	المسيرة	-0.03647482
-3.33227	المشاركة	-0.216196
-3.809391	المشاركين	-0.0235527
-4.110421	المشاهدة	-0.03647482
-4.110421	المشاهدين	-0.02358741
-4.110421	المشتكى	-0.03627268
-3.6333	المشرق	-0.002654776
-4.110421	المشروع	-0.03647482
-3.809391	المشكل	-0.03458452
-4.110421	المصدر	-0.03559821
-4.110421	المصرية	-0.002727602
-4.110421	المضحكات	-0.03647482
-4.110421	المضيء	-0.02358741
-4.110421	المطاطة	-0.03536189
-4.110421	المطلقات	-0.0330256
-4.110421	المعارضة	-0.03644114
-4.110421	المعارضين	-0.03647482
-4.110421	المعارف	-0.002727602
-4.110421	المعاشي	-0.002727602
-4.110421	المعامل	-0.03647482
-4.110421	المعتقل	-0.03630638
-4.110421	المعتوه	-0.002727602
-4.110421	المعجبين	-0.0330256
-4.110421	المعروفون	-0.03600302
-4.110421	المعطيات	-0.03627268
-3.809391	المعلومة	-0.001707099
-4.110421	المعمريين	-0.03647482
-4.110421	المعنويات	-0.002727602
-2.712481	المغاربة	0.001887836
-4.110421	المغاربه	-0.03640745
-2.325092	المغرب	-0.06774588
-3.069029	المغربي	-0.02746309
-4.110421	المغربيات	-0.03647482
-3.156179	المغربية	-0.01373518
-3.809391	المغفور	-0.1643792
-4.110421	المفاوضات	-0.002727602
-4.110421	المفبركة	-0.0267678
-4.110421	المفهوم	-0.03556446
-3.809391	المقابلة	-0.03640745
-4.110421	المقاطعة	-0.03623898
-3.809391	المقال	-0.03630637
-4.110421	المقاول	-0.03600302
-3.809391	المقبلة	-0.03644113
-4.110421	المقبور	-0.03627268
-4.110421	المقتول	-0.03647482
-4.110421	المقد	-0.03644114
-4.110421	المقصود	-0.03647482
-4.110421	المكالمات	-0.03647482
-3.809391	المكتب	-0.03586812
-4.110421	الملاحظ	-0.02358741
-4.110421	الملايير	-0.02358741
-4.110421	الملايين	-0.03559821
-4.110421	الملة	-0.03647482
-4.110421	الملفات	-0.03647482
-3.069029	الملك	-0.0554611
-4.110421	الملكف	-0.03647482
-3.33227	الملكي	-0.04108663
-4.110421	الملكية	-0.03647482
-3.809391	الملهى	-0.03644113
-4.110421	المليكي	-0.0267678
-4.110421	الممارسات	-0.002727602
-4.110421	الممانعة	-0.03647482
-4.110421	الممتعة	-0.03536189
-4.110421	الممنهجة	-0.02358741
-3.809391	المنادي	-0.03074494
-3.6333	المناصب	-0.03630637
-3.809391	المناطق	-0.03640745
-4.110421	المنتخب	-0.03180166
-4.110421	المنتخبة	-0.03623898
-4.110421	المنتهية	-0.03647482
-4.110421	المنحوسة	-0.03536189
-4.110421	المنشورات	-0.03647482
-4.110421	المنصرم	-0.002727602
-3.809391	المنصف	-0.1646825
-3.33227	المنطقة	-0.04119591
-4.110421	المنفد	-0.03647482
-4.110421	المهاجرون	-0.03647482
-3.508361	المهاجرين	-0.08599983
-4.110421	المهزلة	-0.002727602
-3.508361	المهم	-0.08281817
-4.110421	المهمة	-0.03627268
-4.110421	المهنة	-0.03644114
-4.110421	المهيمة	-0.03180166
-4.110421	الموارد	-0.03644114
-4.110421	المواطن	-0.03647482
-4.110421	المواطنين	-0.03647482
-4.110421	الموافق	-0.03637376
-3.809391	المواقع	-0.03488887
-4.110421	المواقف	-0.03630638
-3.508361	الموت	-0.002108291
-4.110421	الموجودة	-0.02358741
-4.110421	الموظفون	-0.03647482
-3.069029	الموقع	-0.1130737
-4.110421	المولد	-0.03647482
-3.809391	المولود	-0.03600301
-4.110421	المولوية	-0.03647482
-3.6333	المياه	-0.00258195
-4.110421	الميراثية	-0.03640745
-3.809391	الميزانية	-0.03644113
-4.110421	الميساج	-0.03647482
-4.110421	الميلادية	-0.03640745
-3.809391	الميلودي	-0.0235527
-3.809391	النابغة	-0.03471982
-3.809391	الناتج	-0.03644113
-4.110421	الناجح	-0.03421225
-4.110421	الناجي	-0.03647482
-4.110421	الناحية	-0.002727602
-4.110421	الناخب	-0.03613787
-4.110421	الناخبين	-0.002727602
-2.809391	الناس	-0.04997711
-4.110421	الناظور	-0.03593557
-4.110421	النباتات	-0.03637376
-4.110421	النبوي	-0.03647482
-3.6333	النخبة	-0.03586811
-4.110421	الندرة	-0.02358741
-3.809391	النساء	-0.03644113
-4.110421	النسخة	-0.03647482
-3.809391	النشاط	-0.03593557
-3.809391	النشر	-0.03623898
-4.110421	النص	-0.0267678
-4.110421	النضال	-0.03647482
-3.809391	النظام	-0.03644113
-3.809391	النظر	-0.02132626
-4.110421	النظير	-0.002727602
-4.110421	النفاق	-0.03647482
-3.6333	النفايات	-0.1175673
-4.110421	النقابات	-0.03647482
-4.110421	النقيب	-0.03647482
-4.110421	النماذج	-0.03536189
-4.110421	النمرة	-0.0330256
-4.110421	النهائي	-0.002727602
-4.110421	النهار	-0.03647482
-3.411451	النواب	-0.001524612
-4.110421	النوت	-0.02358741
-4.110421	النور	-0.0330256
-4.110421	النون	-0.002727602
-3.809391	النيجر	-0.02320557
-4.110421	اله	-0.0330256
-4.110421	الهاكا	-0.03647482
-4.110421	الهاكرز	-0.03617158
-4.110421	الهبوط	-0.03647482
-4.110421	الهجرة	-0.03556446
-3.809391	الهجوم	0.002362207
-4.110421	الهجيج	-0.03623898
-4.110421	الهدف	-0.03647482
-4.110421	الهدية	-0.03495649
-4.110421	الهذيان	-0.03647482
-4.110421	الهرب	-0.002727602
-4.110421	الهروب	-0.0267678
-4.110421	الهزيل	-0.03536189
-3.6333	الهزيمة	0.01129327
-4.110421	الهشيم	-0.03637376
-3.809391	الهضرة	-0.1636033
-4.110421	الهكرز	-0.03647482
-4.110421	الهمة	-0.03613787
-4.110421	الهمتهم	-0.03640745
-4.110421	الهند	-0.03647482
-3.809391	الهواتف	-0.1646488
-3.809391	الهوس	-0.03644113
-4.110421	الهولدينغ	-0.03607045
-4.110421	الهولندية	-0.002727602
-3.809391	الهوى	-0.034686
-4.110421	الهيكتومتر	-0.0330256
-4.110421	الواحدة	-0.0352268
-4.110421	الوافدين	-0.03630638
-3.508361	الواقع	-0.0302327
-4.110421	الوالدين	-0.03586812
-4.110421	الوالي	-0.03644114
-4.110421	الوثائق	-0.03647482
-3.6333	الوحيد	-0.1151689
-4.110421	الود	-0.03647482
-4.110421	الوراء	-0.0267678
-4.110421	الورقة	-0.03536189
-4.110421	الوزارة	-0.03647482
-4.110421	الوزراء	-0.03644114
-4.110421	الوزير	-0.03644114
-4.110421	الوسطى	-0.03644114
-4.110421	الوصل	-0.03647482
-4.110421	الوصولين	-0.03647482
-3.809391	الوضع	-0.03644113
-4.110421	الوضوء	-0.03630638
-4.110421	الوطن	-0.03647482
-3.33227	الوطني	0.01050442
-3.508361	الوطنية	-0.03404292
-4.110421	الوطنيون	-0.002727602
-4.110421	الوعي	-0.03647482
-3.508361	الوقت	-0.001524612
-4.110421	الوقيعة	-0.03590185
-4.110421	الوكالة	-0.03634007
-4.110421	الولايات	-0.03634007
-4.110421	الوهابية	-0.03536189
-2.964293	الى	0.005096417
-4.110421	الي	-0.03647482
-4.110421	اليأس	-0.03647482
-3.809391	اليابان	-0.03627268
-3.33227	اليسار	-0.03593557
-4.110421	اليساري	-0.03627268
-3.110421	اليمين	-0.1259215
-4.110421	اليهودي	-0.03647482
-2.906301	اليوم	-0.001533318
-4.110421	اليومية	-0.0267678
-4.110421	اليونان	-0.03644114
-4.110421	الڤيديو	-0.03644114
-3.809391	ام	-0.03603673
-3.809391	اما	-0.03613787
-4.110421	امام	-0.03583439
-4.110421	امامهم	-0.03647482
-4.110421	امبريالي	-0.03546318
-3.809391	امتلاك	-0.1646488
-4.110421	امحمد	-0.03640745
-4.110421	امر	-0.03644114
-4.110421	امرأة	-0.03647482
-4.110421	امرنا	-0.002727602
-4.110421	امزورن	-0.03634007
-4.110421	امس	-0.03637376
-2.378028	ان	-0.02498173
-3.069029	انا	-0.04816416
-4.110421	انت	-0.03647482
-3.33227	انتخابات	-0.229161
-3.809391	انتخابية	-0.03623898
-4.110421	انتخبها	-0.0356657
-4.110421	انتسابه	-0.03647482
-4.110421	انتشرت	-0.03647482
-4.110421	انتصار	-0.03569945
-4.110421	انتصرت	-0.03647482
-4.110421	انتظار	-0.03647482
-3.809391	انتظر	-0.1550092
-3.809391	انتقادات	-0.03617157
-4.110421	انتهاكات	-0.03647482
-4.110421	انتهى	-0.03644114
-4.110421	انجلس	-0.002727602
-4.110421	اندرويد	-0.03647482
-4.110421	اندير	-0.03627268
-4.110421	انزعجوا	-0.0267678
-4.110421	انسان	-0.03644114
-4.110421	انشغال	-0.03637376
-4.110421	انصتوا	-0.03640745
-4.110421	انطباع	-0.0359693
-4.110421	انطلقت	-0.03634007
-4.110421	انغامي	-0.002727602
-4.110421	انفاجرو	-0.03647482
-4.110421	انفاس	-0.03630638
-3.809391	انك	-0.0355307
-4.110421	انكار	-0.03647482
-3.6333	انني	-0.03610415
-3.508361	انه	-0.03586812
-4.110421	انها	-0.03640745
-4.110421	اه	-0.03647482
-4.110421	اهدر	-0.03634007
-4.110421	اهدى	-0.03647482
-4.110421	اهم	-0.0267678
-2.906301	او	-0.01192871
-4.110421	اوا	-0.03647482
-4.110421	اورونج	-0.03644114
-4.110421	اوقفوا	-0.03644114
-4.110421	اوكادير	-0.03647482
-3.508361	اول	-0.03600301
-3.809391	اولا	-0.03580065
-4.110421	اومن	-0.03647482
-4.110421	اوى	-0.03647482
-3.809391	اي	-0.03640745
-3.6333	ايام	0.00239905
-4.110421	ايامكم	-0.03647482
-4.110421	ايبويزي	-0.03647482
-4.110421	ايصال	-0.03647482
-4.110421	ايطاليا	-0.03647482
-4.110421	ايفهمو	-0.03647482
-4.110421	ايفولكي	-0.03600302
-3.809391	اين	-0.03640745
-4.110421	اينوي	-0.03627268
-4.110421	ايهاب	-0.03610416
-4.110421	ايوا	-0.03644114
-2.93433	ب	-0.01395205
-4.110421	بأجهزة	-0.03644114
-4.110421	بأخبار	-0.03637376
-4.110421	بأرض	-0.03647482
-4.110421	بأسماء	-0.03647482
-4.110421	بأسهم	-0.03647482
-4.110421	بأغلبية	-0.03647482
-4.110421	بأكثر	-0.0267678
-3.809391	بألف	-0.1646151
-4.110421	بأمة	-0.03647482
-4.110421	بأمريكا	-0.02358741
-3.33227	بأن	-0.03492268
-4.110421	بأنني	-0.03644114
-4.110421	بأية	-0.03640745
-4.110421	بإرث	-0.03640745
-4.110421	بإستع	-0.002727602
-4.110421	بإسم	-0.03647482
-4.110421	بإعادة	-0.03647482
-4.110421	بإكتئاب	-0.03647482
-4.110421	بإمكانك	-0.03647482
-4.110421	بإهانات	-0.03647482
-3.809391	بإهانة	-0.002618372
-4.110421	با	-0.03644114
-4.110421	بابكم	-0.03647482
-4.110421	بابوبي	-0.002727602
-4.110421	باحترام	-0.0267678
-4.110421	باحث	-0.03617158
-4.110421	باحر	-0.03647482
-4.110421	باختصار	-0.03644114
-4.110421	باربول	-0.03623898
-4.110421	بارودي	-0.03637376
-3.809391	باريس	-0.130969
-4.110421	باز	-0.002727602
-3.809391	باس	-0.03644113
-3.809391	باسم	-0.03644113
-3.207331	باش	-0.03115994
-4.110421	باشا	-0.0359693
-4.110421	باعتقاله	-0.002727602
-3.411451	باغي	-0.03617157
-4.110421	باغيا	-0.03647482
-4.110421	باغية	-0.03569945
-4.110421	باغين	-0.03647482
-3.809391	باغيين	-0.03634007
-4.110421	باقية	-0.03647482
-4.110421	بالآخر	-0.03647482
-4.110421	بالأخر	-0.03644114
-4.110421	بالأرض	-0.03647482
-4.110421	بالأصالة	-0.03647482
-4.110421	بالألوان	-0.03546318
-4.110421	بالأمس	-0.03634007
-4.110421	بالإفلاس	-0.03644114
-4.110421	بالإنكليزية	-0.03637376
-4.110421	بالاقتراع	-0.002727602
-4.110421	بالامن	-0.03647482
-4.110421	بالاهانة	-0.0359693
-4.110421	بالبركة	-0.002727602
-4.110421	بالبرلمان	-0.03613787
-4.110421	بالبلد	-0.0359693
-4.110421	بالبلوكاج	-0.03515923
-4.110421	بالتصدي	-0.03647482
-4.110421	بالتصويت	-0.03647482
-4.110421	بالتعليق	-0.03644114
-4.110421	بالتعليم	-0.03647482
-4.110421	بالتقسيط	-0.03647482
-4.110421	بالتوفيق	-0.03647482
-4.110421	بالجرب	-0.03640745
-4.110421	بالحاسوب	-0.03431381
-4.110421	بالحجر	-0.002727602
-4.110421	بالحرية	-0.03640745
-4.110421	بالحسن	-0.03180166
-4.110421	بالحسيمة	-0.002727602
-4.110421	بالحق	-0.03556446
-4.110421	بالحياة	-0.03627268
-4.110421	بالخروج	-0.0267678
-4.110421	بالخطأ	-0.002727602
-4.110421	بالخونة	-0.002727602
-4.110421	بالخير	-0.002727602
-4.110421	بالخيول	-0.03647482
-3.809391	بالدار	-0.1644804
-4.110421	بالداعيشي	-0.02358741
-3.33227	بالرباط	-0.1411993
-4.110421	بالرصاص	-0.02358741
-4.110421	بالزاف	-0.03640745
-4.110421	بالستيا	-0.03647482
-4.110421	بالسرقة	-0.03634007
-4.110421	بالسعادة	-0.03647482
-4.110421	بالسلطوية	-0.002727602
-4.110421	بالسيارة	-0.0267678
-4.110421	بالشجاعة	-0.002727602
-4.110421	بالشيشان	-0.03610416
-4.110421	بالصبر	-0.002727602
-4.110421	بالصحة	-0.03647482
-4.110421	بالصدفة	-0.02358741
-3.809391	بالصورة	-0.03532812
-4.110421	بالعالم	-0.03644114
-4.110421	بالعباد	-0.002727602
-3.508361	بالعربية	-0.0234833
-4.110421	بالعشق	-0.03647482
-4.110421	بالعصي	-0.03180166
-4.110421	بالعمل	-0.0355307
-4.110421	بالعنف	-0.03586812
-3.508361	بالفرنسية	-0.0232403
-4.110421	بالفطرة	-0.002727602
-4.110421	بالفلوس	-0.0330256
-4.110421	بالفنيدق	-0.03647482
-4.110421	بالفهم	-0.03647482
-4.110421	بالفوز	-0.03634007
-3.508361	بالفيديو	-0.09567697
-4.110421	بالفيسبوك	-0.03627268
-4.110421	بالفيلا	-0.03630638
-4.110421	بالك	-0.03623898
-4.110421	باللذات	-0.03634007
-4.110421	باللغة	-0.03610416
-4.110421	باللغتين	-0.03590185
-3.809391	بالله	-0.02663
-4.110421	بالمال	-0.03617158
-4.110421	بالمدرسة	-0.03647482
-4.110421	بالمرة	-0.0267678
-4.110421	بالمسرحية	-0.002727602
-3.207331	بالمغرب	-0.030096
-4.110421	بالمك	-0.002727602
-4.110421	بالمناسبة	-0.02358741
-4.110421	بالمنطقة	-0.03590185
-4.110421	بالميلادي	-0.03647482
-3.809391	بالنسبة	-0.1643792
-3.809391	بالنسخه	-0.03586812
-4.110421	بالهجري	-0.002727602
-4.110421	بالهولدينغ	-0.03607045
-4.110421	بالورود	-0.03647482
-3.809391	باليابان	-0.002691191
-4.110421	بامكانكم	-0.03644114
-4.110421	بانقلاب	-0.002727602
-3.508361	بانون	-0.002618369
-3.809391	بايت	-0.1646488
-4.110421	ببداية	-0.03647482
-4.110421	ببراءات	-0.03647482
-4.110421	ببراءة	-0.03549694
-3.809391	ببنكيران	-0.03471982
-3.809391	بتاريخ	-0.03586812
-3.809391	بتحبها	-0.03539566
-4.110421	بتحميل	-0.03647482
-4.110421	بتدرج	-0.03647482
-4.110421	بترسيب	-0.03647482
-4.110421	بتسريع	-0.03640745
-4.110421	بتسير	-0.03647482
-4.110421	بتشجيع	-0.03630638
-4.110421	بتشفير	-0.03647482
-4.110421	بتشكيل	-0.03563195
-4.110421	بتعلم	-0.03610416
-4.110421	بتغييربعض	-0.03644114
-3.809391	بتكسير	-0.1646825
-4.110421	بتلجيم	-0.03630638
-3.809391	بتهمة	-0.03644113
-4.110421	بتوافق	-0.03590185
-4.110421	بتوجيهات	-0.0267678
-4.110421	بتوضيحات	-0.03640745
-3.6333	بتوقيت	-0.3783466
-4.110421	بتول	-0.03647482
-4.110421	بتونس	-0.002727602
-4.110421	بث	-0.03583439
-4.110421	بجدارة	-0.03647482
-4.110421	بجماعة	-0.03647482
-4.110421	بجمهورية	-0.03644114
-4.110421	بجن	-0.03644114
-4.110421	بجوج	-0.03610416
-4.110421	بجولاته	-0.002727602
-4.110421	بجوي	-0.002727602
-4.110421	بحاجة	-0.03647482
-3.03124	بحال	-0.06984109
-4.110421	بحالك	-0.03647482
-4.110421	بحالي	-0.002727602
-4.110421	بحثا	-0.03431381
-3.809391	بحذف	-0.0355982
-3.809391	بحرف	-0.03630637
-4.110421	بحق	-0.03647482
-4.110421	بحكم	-0.03630638
-4.110421	بحلول	-0.03640745
-3.809391	بحملة	-0.1646825
-4.110421	بحوادث	-0.03644114
-4.110421	بخراب	-0.03644114
-4.110421	بخس	-0.03644114
-3.6333	بخصوص	-0.03620527
-4.110421	بخطى	-0.03647482
-4.110421	بخلق	-0.03647482
-3.207331	بخير	-0.1369756
-4.110421	بخييييير	-0.002727602
-4.110421	بد	-0.002727602
-3.6333	بدأ	-0.03593556
-4.110421	بدأت	-0.03627268
-4.110421	بدا	-0.03647482
-4.110421	بداو	-0.0267678
-4.110421	بداية	-0.03644114
-4.110421	بدخول	-0.03613787
-4.110421	بدعم	-0.03647482
-4.110421	بدقة	-0.03647482
-3.508361	بدل	-0.03590184
-3.809391	بدلا	-0.1550092
-3.809391	بدور	-0.03644113
-4.110421	بدورنا	-0.03647482
-4.110421	بدوره	-0.03515923
-4.110421	بدوفيز	-0.03647482
-4.110421	بدولة	-0.03644114
-3.265323	بدون	-0.06918358
-4.110421	بدوي	-0.02358741
-4.110421	بديـع	-0.03644114
-4.110421	بذكائه	-0.03647482
-4.110421	بذلك	-0.03647482
-3.6333	برئاسة	-0.1168592
-4.110421	برا	-0.002727602
-4.110421	برافو	-0.03647482
-4.110421	برامج	-0.03644114
-4.110421	برب	-0.03647482
-4.110421	برج	-0.03647482
-3.809391	برشلونة	-0.002581958
-4.110421	برفيق	-0.03644114
-4.110421	بركان	-0.03634007
-4.110421	بركاوي	-0.03644114
-3.809391	بركة	0.007810649
-3.809391	برلماني	-0.03620528
-4.110421	برلمانية	-0.002727602
-4.110421	برلمانيي	-0.03617158
-3.03124	برنامج	-0.04999886
-3.809391	بروبغندا	-0.002691191
-4.110421	برومو	-0.03647482
-4.110421	بريئة	-0.03647482
-4.110421	بريطانيا	-0.03586812
-4.110421	بزاف	-0.03576692
-4.110421	بزز	-0.002727602
-4.110421	بزوج	-0.0330256
-4.110421	بساجد	-0.03644114
-4.110421	بسالت	-0.03634007
-3.33227	بسبب	-0.02330974
-4.110421	بسرعة	-0.03586812
-4.110421	بسرية	-0.03630638
-3.508361	بسطيلة	-0.03637376
-4.110421	بسلسلة	-0.0267678
-4.110421	بسياسات	-0.03637376
-4.110421	بشاخ	-0.03647482
-4.110421	بشروط	-0.03640745
-4.110421	بشقى	-0.002727602
-3.207331	بشكل	-0.03620528
-3.809391	بشوية	-0.002436269
-4.110421	بصح	-0.002727602
-3.6333	بصراحة	-0.03617157
-4.110421	بصفة	-0.03630638
-4.110421	بصم	-0.03600302
-4.110421	بصمات	-0.03634007
-4.110421	بصناديق	-0.03647482
-4.110421	بضعة	-0.03640745
-4.110421	بطئ	-0.03640745
-4.110421	بطرق	-0.03647482
-4.110421	بطريقة	-0.03647482
-4.110421	بطلبه	-0.03556446
-4.110421	بطنجة	-0.02358741
-4.110421	بعام	-0.03613787
-4.110421	بعبودية	-0.03630638
-4.110421	بعث	-0.03644114
-2.530638	بعد	-0.02783554
-4.110421	بعدها	-0.03647482
-4.110421	بعشرات	-0.03640745
-4.110421	بعشرين	-0.03610416
-3.207331	بعض	-0.02628532
-3.809391	بعضياتهم	-0.03637376
-4.110421	بعقود	-0.03647482
-4.110421	بعملية	-0.03647482
-4.110421	بعنوان	-0.03644114
-4.110421	بعيد	-0.03607045
-3.411451	بعيدا	-0.7759566
-4.110421	بغا	-0.03647482
-4.110421	بغاو	-0.03647482
-4.110421	بغد	-0.03647482
-4.110421	بغض	-0.03644114
-4.110421	بغل	-0.03630638
-3.809391	بغيت	-0.0355307
-4.110421	بغيتي	-0.03644114
-3.809391	بـ	-0.03644113
-4.110421	بفاس	-0.03644114
-4.110421	بفريق	-0.03640745
-4.110421	بفشل	-0.03630638
-4.110421	بفضل	-0.03607045
-4.110421	بفلم	-0.03647482
-3.6333	بقا	-0.002618365
-4.110421	بقات	-0.002727602
-4.110421	بقاس	-0.03647482
-4.110421	بقال	-0.03647482
-3.809391	بقاو	-0.03637376
-4.110421	بقضية	-0.03644114
-3.809391	بقلعة	-0.1646825
-4.110421	بقي	-0.03647482
-4.110421	بقيادة	-0.03644114
-4.110421	بقيت	-0.03647482
-4.110421	بقيتش	-0.03647482
-4.110421	بقيمة	-0.03620528
-4.110421	بقينا	-0.02358741
-4.110421	بك	-0.03647482
-4.110421	بكثير	-0.03431381
-4.110421	بكرامة	-0.0355307
-4.110421	بكري	-0.002727602
-3.6333	بكل	-0.03637375
-4.110421	بكلامي	-0.002727602
-4.110421	بكييييييو	-0.03593557
-3.33227	بل	-0.01705023
-3.508361	بلا	-0.03461834
-4.110421	بلاش	-0.03647482
-4.110421	بلاغ	-0.03569945
-4.110421	بلاغا	-0.03647482
-4.110421	بلافريج	-0.03647482
-3.809391	بلاكبيري	-0.03640745
-4.110421	بلحظة	-0.03644114
-4.110421	بلحم	-0.03583439
-3.6333	بلد	-0.02275388
-3.809391	بلدنا	-0.002509121
-4.110421	بلده	-0.002727602
-4.110421	بلدي	-0.002727602
-3.6333	بلغة	-0.03640744
-4.110421	بلغتك	-0.002727602
-4.110421	بلغتهم	-0.03647482
-4.110421	بلنسيا	-0.03647482
-3.809391	بلوكاج	-0.0355307
-4.110421	بليدا	-0.03421225
-4.110421	بليل	-0.03647482
-3.809391	بما	-0.03644113
-4.110421	بمترين	-0.03644114
-4.110421	بمثابة	-0.03610416
-4.110421	بمثن	-0.03647482
-4.110421	بمجتمع	-0.03647482
-4.110421	بمجرد	-0.03647482
-4.110421	بمده	-0.002727602
-4.110421	بمراكش	-0.03647482
-4.110421	بمرض	-0.03647482
-4.110421	بمسرح	-0.03586812
-4.110421	بمشروع	-0.03644114
-4.110421	بمصر	-0.03556446
-4.110421	بمقتل	-0.03634007
-3.809391	بمناسبة	-0.03613787
-4.110421	بمنتوجات	-0.03647482
-4.110421	بمنطق	-0.03647482
-4.110421	بمول	-0.03647482
-3.069029	بن	-0.05660923
-3.809391	بناء	-0.03634007
-4.110421	بنائها	-0.03647482
-3.508361	بنادم	-0.0343138
-3.809391	بنت	-0.03299165
-4.110421	بنتائج	-0.002727602
-3.809391	بنحماد	-0.03640745
-4.110421	بندية	-0.03647482
-4.110421	بنشماش	-0.03634007
-4.110421	بنظام	-0.03647482
-4.110421	بنعزوز	-0.03647482
-4.110421	بنعلي	-0.002727602
-4.110421	بنعمرو	-0.03640745
-4.110421	بنفسك	-0.03644114
-4.110421	بنقلها	-0.03647482
-2.73021	بنكيران	-0.02139181
-4.110421	بنميلود	-0.03647482
-3.6333	بني	-0.1175673
-3.33227	به	0.01144368
-3.6333	بها	-0.03610415
-3.809391	بهاد	-0.03610416
-4.110421	بهبيل	-0.03640745
-4.110421	بهدوء	-0.03546318
-3.809391	بهذا	-0.03644113
-4.110421	بهذه	-0.03647482
-4.110421	بهم	-0.03647482
-3.809391	بو	-0.03644113
-4.110421	بوابو	-0.03647482
-4.110421	بوادر	-0.03644114
-4.110421	بوتن	-0.03647482
-3.411451	بوتين	-0.08316195
-4.110421	بوحدها	-0.03640745
-4.110421	بوحدو	-0.03563195
-4.110421	بوحديتي	-0.002727602
-4.110421	بورجوازي	-0.03637376
-4.110421	بورطابلك	-0.03644114
-4.110421	بورما	-0.03647482
-4.110421	بوزير	-0.002727602
-4.110421	بوستة	-0.03644114
-3.809391	بوسعيد	-0.002691191
-3.809391	بوعياش	-0.002545539
-4.110421	بوفاتها	-0.002727602
-4.110421	بوقف	-0.03647482
-4.110421	بوليزريو	-0.002727602
-4.110421	بونيا	-0.002727602
-4.110421	بيت	-0.03647482
-4.110421	بيتو	-0.03647482
-4.110421	بيجيدي	-0.03647482
-4.110421	بيرني	-0.03647482
-4.110421	بيرو	-0.03590185
-4.110421	بيزنطي	-0.0356657
-4.110421	بيقتل	-0.03637376
-4.110421	بيقولوا	-0.03620528
-4.110421	بيك	-0.03644114
-4.110421	بيل	-0.03647482
-2.855149	بين	-0.01143362
-4.110421	بيناتهم	-0.03583439
-3.6333	بيه	-0.002326965
-3.411451	ة	-0.002545536
-3.508361	ت	-0.06205907
-4.110421	تأثير	-0.03647482
-4.110421	تأثيرا	-0.0355307
-4.110421	تأخذ	-0.03647482
-3.508361	تأسيس	-0.09436077
-4.110421	تأشيرة	-0.03630638
-4.110421	تأليف	-0.03647482
-4.110421	تؤدي	-0.03556446
-4.110421	تؤكد	-0.03461835
-4.110421	تابعت	-0.03640745
-4.110421	تابعين	-0.03647482
-4.110421	تاتحسب	-0.03647482
-4.110421	تاتدعي	-0.03180166
-3.411451	تاريخ	-0.03285581
-4.110421	تاريخك	-0.03640745
-4.110421	تاريخنا	-0.03607045
-4.110421	تاريخيا	-0.02358741
-3.809391	تاريخية	-0.0343815
-4.110421	تاست	-0.002727602
-4.110421	تاشفين	-0.03647482
-4.110421	تافيلالت	-0.0267678
-4.110421	تاكلا	-0.03647482
-4.110421	تاكلوها	-0.03634007
-3.809391	تانتا	-0.02673335
-4.110421	تاهاداك	-0.03637376
-4.110421	تايحسب	-0.03647482
-4.110421	تايسول	-0.0267678
-4.110421	تبادلنا	-0.03640745
-4.110421	تبارك	-0.03559821
-4.110421	تبحث	-0.03637376
-4.110421	تبرز	-0.03431381
-3.809391	تبرير	-0.034686
-4.110421	تبع	-0.03583439
-4.110421	تبعت	-0.03613787
-4.110421	تبعد	-0.03647482
-4.110421	تبغي	-0.03647482
-4.110421	تبكي	-0.03644114
-4.110421	تبليغات	-0.03647482
-4.110421	تبناها	-0.03644114
-4.110421	تبنى	-0.03644114
-4.110421	تبيع	-0.03647482
-4.110421	تبين	-0.03623898
-4.110421	تتبادل	-0.03640745
-4.110421	تتباكى	-0.03431381
-4.110421	تتبع	-0.03647482
-4.110421	تتبول	-0.02358741
-4.110421	تتجسد	-0.02358741
-4.110421	تتخلص	-0.0352268
-4.110421	تتخلصوا	-0.0267678
-4.110421	تتذكره	-0.002727602
-4.110421	تتراوح	-0.03644114
-4.110421	تتزوج	-0.03647482
-4.110421	تتزوجي	-0.03421225
-4.110421	تتزوجين	-0.03421225
-4.110421	تتسبب	-0.03647482
-4.110421	تتسع	-0.03640745
-4.110421	تتشوف	-0.03583439
-4.110421	تتصل	-0.03647482
-4.110421	تتصورون	-0.03620528
-4.110421	تتضامن	-0.03475364
-3.809391	تتعامل	-0.03471982
-4.110421	تتعرض	-0.03647482
-4.110421	تتعرف	-0.03647482
-4.110421	تتعلم	-0.03647482
-4.110421	تتفرج	-0.03647482
-4.110421	تتفق	-0.03475364
-4.110421	تتقاطع	-0.03475364
-4.110421	تتقدم	-0.03180166
-4.110421	تتقول	-0.002727602
-4.110421	تتم	-0.03647482
-4.110421	تتمعن	-0.02358741
-4.110421	تتميزت	-0.03647482
-4.110421	تتناول	-0.03607045
-4.110421	تتوالى	-0.03640745
-4.110421	تتوضى	-0.0330256
-4.110421	تتوفر	-0.03623898
-4.110421	تجارب	-0.03637376
-4.110421	تجاوز	-0.03647482
-4.110421	تجبيدة	-0.03647482
-4.110421	تجد	-0.03647482
-4.110421	تجربة	-0.03637376
-4.110421	تجربتان	-0.03647482
-4.110421	تجربتي	-0.03475364
-4.110421	تجري	-0.03600302
-3.809391	تجزئة	-0.1646151
-4.110421	تجمع	-0.03644114
-4.110421	تجي	-0.03647482
-4.110421	تحالف	-0.03647482
-4.110421	تحالفهم	-0.03475364
-4.110421	تحاليل	-0.03647482
-4.110421	تحاول	-0.03634007
-3.6333	تحت	-0.03623897
-4.110421	تحتاج	-0.03556446
-4.110421	تحترمه	-0.03640745
-4.110421	تحترموا	-0.03640745
-4.110421	تحتفظ	-0.03647482
-3.809391	تحدث	-0.03427996
-4.110421	تحدثك	-0.03640745
-4.110421	تحديات	-0.03647482
-4.110421	تحرك	-0.03644114
-4.110421	تحركه	-0.03647482
-3.809391	تحرير	-0.03637376
-4.110421	تحريرها	-0.03607045
-4.110421	تحريرية	-0.03421225
-4.110421	تحسن	-0.03640745
-4.110421	تحسينه	-0.03610416
-4.110421	تحسينها	-0.03180166
-4.110421	تحصل	-0.03180166
-4.110421	تحقيق	-0.03647482
-4.110421	تحقيقا	-0.02358741
-4.110421	تحكمه	-0.03637376
-3.809391	تحميل	-0.03610416
-4.110421	تحن	-0.03647482
-4.110421	تحنيط	-0.03644114
-4.110421	تحول	-0.03556446
-4.110421	تحية	-0.03647482
-4.110421	تحيد	-0.03630638
-4.110421	تخاطب	-0.03644114
-4.110421	تختبر	-0.03647482
-3.809391	تختلف	-0.03404292
-4.110421	تخرج	-0.03647482
-4.110421	تخرجو	-0.03647482
-4.110421	تخريج	-0.03640745
-3.809391	تخص	-0.03556445
-4.110421	تخصص	-0.03647482
-4.110421	تخصيب	-0.03610416
-4.110421	تخلت	-0.03644114
-4.110421	تخلى	-0.03569945
-4.110421	تخليكم	-0.03647482
-4.110421	تخن	-0.002727602
-3.508361	تدبير	-0.03613786
-4.110421	تدخ	-0.03627268
-3.809391	تدخل	-0.0235527
-4.110421	تدريسها	-0.03647482
-4.110421	تدعشنت	-0.03627268
-4.110421	تدعم	-0.03647482
-4.110421	تدعو	-0.03556446
-4.110421	تدفع	-0.03634007
-4.110421	تدقيق	-0.02358741
-4.110421	تدني	-0.03647482
-4.110421	تدوينة	-0.03647482
-4.110421	تديرييت	-0.03647482
-4.110421	تديهاش	-0.02358741
-4.110421	تديوها	-0.03647482
-4.110421	تذا	-0.03647482
-4.110421	تذاكر	-0.03637376
-4.110421	تذكار	-0.03644114
-4.110421	تذكرت	-0.03647482
-3.6333	تراجع	0.007847957
-2.906301	ترامب	-0.01406924
-4.110421	ترتيب	-0.03647482
-4.110421	ترجمته	-0.03647482
-4.110421	ترد	-0.03180166
-4.110421	تردو	-0.03647482
-3.809391	ترشيح	-0.03613787
-3.809391	ترك	-0.03556445
-4.110421	تركتك	-0.03647482
-4.110421	تركي	-0.0330256
-3.6333	تركيا	-0.03607044
-4.110421	تركية	-0.03647482
-4.110421	تروا	-0.03647482
-4.110421	تروج	-0.03644114
-4.110421	ترويج	-0.03647482
-4.110421	ترى	-0.02358741
-3.508361	تريد	-0.002509117
-4.110421	تزاحم	-0.03644114
-4.110421	تزايد	-0.002727602
-4.110421	تزدهر	-0.03627268
-4.110421	تزرع	-0.02358741
-4.110421	تزيح	-0.03607045
-4.110421	تزيد	-0.03647482
-4.110421	تسألوني	-0.03471982
-4.110421	تسا	-0.002727602
-4.110421	تساهم	-0.03600302
-4.110421	تساهمين	-0.03647482
-4.110421	تسببت	-0.02358741
-3.809391	تستاهل	-0.03640745
-4.110421	تستحق	-0.03647482
-4.110421	تستخلص	-0.034686
-4.110421	تستعمل	-0.03647482
-4.110421	تستهلك	-0.03644114
-4.110421	تستوي	-0.03559821
-3.809391	تسجيل	-0.03526057
-4.110421	تسخر	-0.0267678
-4.110421	تسدات	-0.03647482
-4.110421	تسرب	-0.03623898
-4.110421	تسريح	-0.03640745
-4.110421	تسطى	-0.03647482
-4.110421	تسكر	-0.0330256
-4.110421	تسليم	-0.002727602
-3.6333	تسمع	-0.002290528
-3.809391	تسمى	-0.03637376
-4.110421	تسناه	-0.03644114
-4.110421	تسوية	-0.03647482
-4.110421	تسيل	-0.03647482
-4.110421	تسيير	-0.03647482
-4.110421	تشتري	-0.03637376
-4.110421	تشتيت	-0.002727602
-4.110421	تشفي	-0.03644114
-4.110421	تشفين	-0.03647482
-3.6333	تشكيل	-0.116758
-4.110421	تشكيلها	-0.002727602
-4.110421	تشن	-0.03627268
-4.110421	تشوافت	-0.03620528
-4.110421	تشوفو	-0.03569945
-4.110421	تشويق	-0.03644114
-4.110421	تصايب	-0.03647482
-4.110421	تصبح	-0.03647482
-4.110421	تصدر	-0.03644114
-4.110421	تصدق	-0.03647482
-4.110421	تصريح	-0.03640745
-3.809391	تصريحات	-0.03630637
-3.809391	تصفح	-0.03620528
-4.110421	تصل	-0.03603673
-4.110421	تصميم	-0.03634007
-4.110421	تصور	-0.03620528
-4.110421	تصوروا	-0.03647482
-4.110421	تضاعفت	-0.03610416
-3.508361	تضامنا	-0.2454203
-3.809391	تضرب	-0.03640745
-4.110421	تضع	-0.03640745
-3.809391	تضم	-0.03637376
-3.508361	تطبيق	-0.03627267
-4.110421	تطبيقي	-0.03647482
-3.809391	تطوان	-0.03576692
-4.110421	تطور	-0.03634007
-3.809391	تطورات	-0.03627268
-3.809391	تظهر	-0.03556445
-4.110421	تعارفيهش	-0.03610416
-4.110421	تعازي	-0.03647482
-4.110421	تعاطف	-0.03623898
-4.110421	تعامل	-0.03640745
-4.110421	تعانقه	-0.03647482
-4.110421	تعاني	-0.03647482
-4.110421	تعاودت	-0.03647482
-4.110421	تعتدي	-0.03647482
-4.110421	تعتقد	-0.034686
-3.809391	تعتمد	-0.160043
-4.110421	تعجبني	-0.002727602
-4.110421	تعد	-0.002727602
-3.809391	تعدد	-0.03441535
-4.110421	تعددت	-0.03644114
-4.110421	تعديل	-0.03644114
-4.110421	تعديلها	-0.03640745
-4.110421	تعرض	-0.03647482
-3.6333	تعرف	-0.1078932
-4.110421	تعرفت	-0.03640745
-4.110421	تعرفو	-0.03647482
-4.110421	تعرفون	-0.03613787
-4.110421	تعفر	-0.03644114
-3.33227	تعلم	-0.3766854
-4.110421	تعلما	-0.03607045
-4.110421	تعلمت	-0.03610416
-3.809391	تعلن	-0.03427996
-3.6333	تعليق	-0.03617157
-3.809391	تعليم	-0.023518
-3.809391	تعليمية	-0.03644113
-4.110421	تعم	-0.03647482
-4.110421	تعمل	-0.02358741
-4.110421	تعملن	-0.002727602
-4.110421	تعويم	-0.03640745
-4.110421	تعيش	-0.03647482
-4.110421	تعيشوا	-0.02358741
-4.110421	تعيينه	-0.03644114
-4.110421	تغذية	-0.03647482
-4.110421	تغنى	-0.03647482
-4.110421	تغول	-0.03637376
-4.110421	تغير	-0.03644114
-4.110421	تفارقتي	-0.03644114
-4.110421	تفاصيل	-0.02358741
-3.809391	تفاعل	-0.0008304752
-4.110421	تفاعلية	-0.03644114
-4.110421	تفتح	-0.03647482
-4.110421	تفز	-0.03644114
-3.809391	تفسير	-0.001707099
-4.110421	تفضلو	-0.03603673
-4.110421	تفقدي	-0.03647482
-4.110421	تفكر	-0.03647482
-3.809391	تفهم	-0.1646825
-4.110421	تفوز	-0.03640745
-4.110421	تقارب	-0.03634007
-4.110421	تقبل	-0.03637376
-4.110421	تقبلها	-0.002727602
-4.110421	تقتضي	-0.03647482
-4.110421	تقدر	-0.03644114
-4.110421	تقدموا	-0.03647482
-4.110421	تقدميين	-0.0359693
-3.809391	تقديمه	-0.03617157
-4.110421	تقر	-0.03600302
-3.6333	تقرير	-0.002654776
-4.110421	تقصي	-0.03644114
-4.110421	تقضي	-0.03644114
-4.110421	تقطع	-0.03647482
-4.110421	تقع	-0.02358741
-4.110421	تقل	-0.03647482
-4.110421	تقلب	-0.0359693
-4.110421	تقلبوا	-0.03180166
-4.110421	تقليص	-0.03647482
-4.110421	تقود	-0.03640745
-4.110421	تقولونها	-0.03647482
-4.110421	تقولوها	-0.03647482
-3.809391	تقوم	-0.03644113
-4.110421	تقي	-0.03647482
-4.110421	تقيسش	-0.03647482
-4.110421	تقيم	-0.03647482
-4.110421	تكبر	-0.03647482
-4.110421	تكتب	-0.03644114
-4.110421	تكتبتهم	-0.03623898
-4.110421	تكتبهم	-0.03647482
-4.110421	تكريس	-0.03644114
-3.508361	تكشف	-0.1624875
-4.110421	تكلفة	-0.03647482
-4.110421	تكلفت	-0.03647482
-4.110421	تكميلي	-0.0267678
-4.110421	تكن	-0.03647482
-3.6333	تكون	-0.03603672
-4.110421	تكوين	-0.002727602
-4.110421	تلاقيتيه	-0.03647482
-4.110421	تلاميذ	-0.03647482
-4.110421	تلبية	-0.03647482
-4.110421	تلتلقي	-0.03586812
-4.110421	تلعبن	-0.03647482
-4.110421	تلعنه	-0.03647482
-4.110421	تلفزيون	-0.03637376
-4.110421	تلقاء	-0.03637376
-4.110421	تلقى	-0.03647482
-4.110421	تلقيتها	-0.02358741
-3.6333	تلك	-0.03637375
-4.110421	تلميذ	-0.002727602
-3.069029	تم	-0.03607045
-4.110421	تما	-0.03623898
-4.110421	تمارس	-0.02358741
-4.110421	تمت	-0.03647482
-4.110421	تمثال	-0.03644114
-4.110421	تمثل	-0.0267678
-4.110421	تمثليته	-0.03640745
-4.110421	تمحي	-0.03647482
-3.809391	تمر	-0.03630637
-4.110421	تمس	-0.03644114
-4.110421	تمسحهم	-0.03637376
-4.110421	تمشي	-0.03647482
-4.110421	تملق	-0.03640745
-4.110421	تملقت	-0.03640745
-4.110421	تملك	-0.03630638
-4.110421	تمول	-0.03600302
-4.110421	تمويل	-0.03627268
-4.110421	تناقص	-0.03644114
-4.110421	تنتج	-0.03647482
-4.110421	تنتظر	-0.03637376
-4.110421	تنتفض	-0.03630638
-4.110421	تنته	-0.0352268
-3.809391	تنتهي	-0.002691191
-4.110421	تنديدا	-0.03647482
-4.110421	تنساه	-0.002727602
-4.110421	تنشئ	-0.03637376
-4.110421	تنشر	-0.03640745
-4.110421	تنصيب	-0.03647482
-3.6333	تنظيم	-0.002472691
-4.110421	تنفع	-0.03644114
-4.110421	تنقص	-0.03637376
-4.110421	تنقطع	-0.002727602
-3.809391	تنقول	-0.03644113
-4.110421	تنوض	-0.03647482
-4.110421	تنوي	-0.03644114
-4.110421	تنوير	-0.03647482
-3.809391	تهاجم	-0.0355307
-4.110421	تهجرها	-0.03647482
-4.110421	تهجم	-0.03180166
-4.110421	تهمة	-0.03647482
-4.110421	تهنئة	-0.03644114
-4.110421	تواجد	-0.03647482
-4.110421	تواجه	-0.03647482
-4.110421	توجب	-0.03647482
-4.110421	توجد	-0.03640745
-4.110421	توحشت	-0.03644114
-4.110421	توحشها	-0.0267678
-3.809391	تورط	-0.1518288
-4.110421	توزعوا	-0.02358741
-4.110421	توصلت	-0.03647482
-4.110421	توصيف	-0.0359693
-3.6333	توضيح	-0.03492267
-4.110421	توطينها	-0.03627268
-4.110421	توظف	-0.03647482
-3.809391	توظيف	-0.03627268
-4.110421	توفرها	-0.03647482
-4.110421	توقعاتي	-0.03647482
-3.6333	توقيف	-0.0355982
-4.110421	تولي	-0.03647482
-4.110421	تونس	-0.03647482
-3.508361	تويتر	-0.03600301
-4.110421	تيبان	-0.034686
-4.110421	تيجي	-0.0267678
-4.110421	تيزنيت	-0.03647482
-4.110421	تيزي	-0.03644114
-4.110421	تيعجبوهم	-0.03647482
-4.110421	تيفيناغ	-0.002727602
-4.110421	تيقول	-0.03495649
-4.110421	تيكتبوا	-0.03647482
-4.110421	ث	-0.03647482
-4.110421	ثابتة	-0.03647482
-4.110421	ثامازغا	-0.03647482
-3.6333	ثاني	-0.1166568
-4.110421	ثانيا	-0.03637376
-4.110421	ثانية	-0.02358741
-4.110421	ثروته	-0.03647482
-4.110421	ثغر	-0.002727602
-3.6333	ثغرة	-0.023518
-3.809391	ثقافة	-0.02673335
-4.110421	ثقافته	-0.03644114
-3.809391	ثقافية	-0.0235527
-3.809391	ثلاث	-0.03526057
-3.6333	ثلاثة	-0.03519301
-4.110421	ثم	-0.03647482
-4.110421	ثواني	-0.03640745
-4.110421	ثورة	-0.03647482
-3.809391	ج	-0.03640745
-4.110421	جا	-0.03475364
-3.809391	جاء	-0.0264577
-4.110421	جاءت	-0.03640745
-4.110421	جائزة	-0.03647482
-3.809391	جاب	-0.03613787
-4.110421	جابها	-0.03593557
-3.809391	جاتكم	-0.03569944
-4.110421	جاد	-0.0330256
-4.110421	جار	-0.03640745
-4.110421	جارتي	-0.002727602
-4.110421	جال	-0.03630638
-4.110421	جالس	-0.02358741
-4.110421	جامعات	-0.03630638
-4.110421	جامعة	-0.03647482
-4.110421	جانب	-0.03647482
-4.110421	جاني	-0.03647482
-4.110421	جاهزة	-0.002727602
-4.110421	جاهل	-0.03647482
-3.809391	جاي	-0.03640745
-4.110421	جاية	-0.03644114
-4.110421	جبان	-0.03647482
-3.809391	جبرون	-0.02995926
-4.110421	جبلون	-0.002727602
-4.110421	جبهة	-0.03647482
-4.110421	جد	-0.03647482
-3.809391	جدا	-0.03288978
-4.110421	جدااااااااااااااااااااااااااااااااااا	-0.002727602
-4.110421	جدة	-0.03647482
-3.207331	جديد	0.01666527
-4.110421	جديدا	-0.03634007
-3.33227	جديدة	-0.1411629
-4.110421	جر	-0.03647482
-4.110421	جرب	-0.03647482
-4.110421	جربه	-0.03586812
-4.110421	جرت	-0.03647482
-4.110421	جرو	-0.03647482
-4.110421	جري	-0.0359693
-3.508361	جزء	-0.05136979
-4.110421	جزءا	-0.0267678
-4.110421	جزاء	-0.03647482
-4.110421	جسر	-0.03647482
-4.110421	جعل	-0.03559821
-4.110421	جفاف	-0.03630638
-4.110421	جلالة	-0.03613787
-4.110421	جلبير	-0.03647482
-4.110421	جماد	-0.03603673
-4.110421	جمادى	-0.03644114
-4.110421	جماعات	-0.03647482
-4.110421	جماعة	-0.03637376
-4.110421	جماعية	-0.03644114
-4.110421	جمع	-0.03586812
-4.110421	جمعية	-0.03647482
-4.110421	جملة	-0.03623898
-4.110421	جمهوره	-0.03647482
-4.110421	جمهورية	-0.03634007
-3.33227	جميع	-0.03630637
-3.6333	جميل	-0.03163139
-4.110421	جميلة	-0.002727602
-4.110421	جنس	-0.002727602
-4.110421	جنسية	-0.002727602
-3.411451	جنوب	-0.1351516
-4.110421	جنون	-0.03647482
-4.110421	جنيتم	-0.03644114
-3.809391	جهات	-0.03465217
-4.110421	جهادية	-0.03647482
-3.809391	جهازك	-0.1646825
-4.110421	جهة	-0.03471982
-3.6333	جهل	-0.03620527
-4.110421	جهنم	-0.002727602
-4.110421	جهودنا	-0.03647482
-4.110421	جهوي	-0.034686
-4.110421	جوانب	-0.03647482
-4.110421	جوبز	-0.03647482
-3.508361	جوج	-0.03522679
-3.6333	جوجل	-0.03620527
-4.110421	جودة	-0.03620528
-4.110421	جوعا	-0.002727602
-4.110421	جي	-0.03630638
-4.110421	جيبلي	-0.03630638
-4.110421	جيبوها	-0.03546318
-3.411451	جيش	-0.2089972
-4.110421	جيل	-0.03647482
-4.110421	جيگا	-0.03634007
-4.110421	ح	-0.002727602
-4.110421	حائط	-0.03644114
-3.411451	حاجة	-0.001707096
-4.110421	حاد	-0.03647482
-4.110421	حادثة	-0.03644114
-4.110421	حاسب	-0.03644114
-3.809391	حاشدة	-0.02673335
-4.110421	حاضرة	-0.02358741
-4.110421	حاقيقي	-0.0267678
-4.110421	حاكمة	-0.03180166
-4.110421	حال	-0.03647482
-4.110421	حالم	-0.03644114
-4.110421	حاليا	-0.002727602
-4.110421	حامضة	-0.03644114
-4.110421	حامي	-0.03647482
-4.110421	حاول	-0.03644114
-4.110421	حب	-0.03637376
-4.110421	حبا	-0.02358741
-3.508361	حبيبي	0.00118516
-4.110421	حتا	-0.03637376
-2.695448	حتى	-0.05023243
-4.110421	حجتو	-0.03644114
-4.110421	حجج	-0.03613787
-3.6333	حجم	-0.03640744
-3.809391	حد	-0.03644113
-4.110421	حداثة	-0.03647482
-4.110421	حداثية	-0.03647482
-4.110421	حداثيين	-0.03647482
-4.110421	حداك	-0.002727602
-4.110421	حدانا	-0.03623898
-4.110421	حدث	-0.02358741
-4.110421	حديث	-0.0267678
-4.110421	حديقة	-0.03647482
-4.110421	حذف	-0.03640745
-4.110421	حراس	-0.03647482
-3.809391	حراك	-0.03640745
-4.110421	حرايفي	-0.03613787
-3.508361	حرب	-0.03630637
-3.809391	حرف	-0.0356657
-4.110421	حرق	-0.03647482
-4.110421	حرقوا	-0.03647482
-3.03124	حركة	-0.1081852
-4.110421	حرمته	-0.03647482
-2.93433	حزب	-0.1161981
-4.110421	حزبك	-0.03623898
-3.6333	حزبه	-0.03542941
-4.110421	حزبي	-0.03634007
-3.6333	حساب	0.01129327
-3.6333	حسب	-0.03627267
-4.110421	حسم	-0.03644114
-3.33227	حسن	-0.07499316
-4.110421	حسين	-0.03647482
-4.110421	حشومة	-0.03647482
-4.110421	حصد	-0.002727602
-3.809391	حصريا	-0.1625552
-4.110421	حصل	-0.0359693
-4.110421	حصلت	-0.03607045
-4.110421	حصوله	-0.03637376
-4.110421	حصيلة	-0.03647482
-4.110421	حضر	-0.03647482
-3.809391	حظ	-0.03593557
-4.110421	حظر	-0.0359693
-4.110421	حظوظه	-0.002727602
-4.110421	حـــارقهم	-0.03647482
-4.110421	حف	-0.03647482
-3.508361	حفل	-0.09537358
-4.110421	حفلا	-0.03647482
-4.110421	حفلة	-0.03637376
-3.508361	حق	-0.03623898
-4.110421	حقد	-0.03634007
-4.110421	حقوق	-0.03637376
-3.508361	حقير	-0.002581954
-4.110421	حقيقة	-0.03634007
-4.110421	حقيقية	-0.002727602
-4.110421	حكاية	-0.03637376
-4.110421	حكروني	-0.03630638
-4.110421	حكم	-0.03613787
-4.110421	حكماء	-0.03647482
-3.809391	حكمت	-0.03441535
-4.110421	حكومة	-0.03647482
-4.110421	حكومته	-0.03644114
-4.110421	حكومتهم	-0.03647482
-4.110421	حكى	-0.03627268
-4.110421	حكيم	-0.03647482
-4.110421	حلا	-0.03647482
-4.110421	حلقة	-0.0359693
-3.508361	حلمت	-0.03526057
-4.110421	حلمه	-0.002727602
-4.110421	حلوة	-0.03546318
-3.809391	حماد	-0.03640745
-3.809391	حمام	-0.03620528
-4.110421	حماية	-0.002727602
-3.809391	حمد	-0.1646488
-4.110421	حمدتك	-0.03546318
-4.110421	حمدو	-0.03559821
-4.110421	حملات	-0.03644114
-3.265323	حملة	-0.0686103
-4.110421	حملتنا	-0.03644114
-4.110421	حملته	-0.03647482
-4.110421	حميد	-0.03647482
-3.508361	حنا	-0.09344721
-4.110421	حنفي	-0.02358741
-3.6333	حنينة	-0.1165555
-4.110421	حوادث	-0.03644114
-4.110421	حوار	-0.03640745
-4.110421	حواسيب	-0.03647482
-3.6333	حوالي	-0.036003
-3.265323	حول	-0.03573317
-4.110421	حوله	-0.03640745
-4.110421	حولي	-0.03640745
-4.110421	حياة	-0.03620528
-4.110421	حياتك	-0.03637376
-3.809391	حياتي	-0.03634007
-3.809391	حيت	-0.03640745
-3.6333	حيث	-0.03640744
-4.110421	حيوانية	-0.03640745
-4.110421	حْفظتي	-0.03647482
-3.809391	خارج	-0.03637376
-4.110421	خاسر	-0.03421225
-3.33227	خاص	-0.03488887
-3.33227	خاصة	0.002325375
-4.110421	خاصية	-0.03647482
-4.110421	خاض	-0.0356657
-4.110421	خاطب	-0.03569945
-4.110421	خالتي	-0.03647482
-4.110421	خالد	-0.03647482
-3.809391	خالص	-0.03640745
-4.110421	خانات	-0.03647482
-4.110421	خايف	-0.002727602
-4.110421	خايفة	-0.03607045
-4.110421	خبايا	-0.03640745
-4.110421	خبراء	-0.03613787
-3.508361	خدام	-0.2467708
-4.110421	خدرات	-0.03647482
-4.110421	خدعتهم	-0.03647482
-4.110421	خدمة	-0.002727602
-4.110421	خدودي	-0.03647482
-4.110421	خرب	-0.03644114
-3.809391	خرج	-0.03478745
-3.809391	خرجت	-0.02618187
-3.809391	خرجوا	0.007810649
-4.110421	خريج	-0.03647482
-4.110421	خزينته	-0.03647482
-3.809391	خسارة	-0.03627268
-4.110421	خسذ	-0.03647482
-4.110421	خسر	-0.03444919
-4.110421	خصص	-0.03600302
-4.110421	خصك	-0.03546318
-3.809391	خطأ	-0.002509121
-3.809391	خطاب	-0.03563195
-4.110421	خطابا	-0.03640745
-3.6333	خطوة	-0.03546317
-4.110421	خطوتين	-0.03556446
-4.110421	خطورة	-0.03634007
-4.110421	خطي	-0.03634007
-4.110421	خطيب	-0.03640745
-4.110421	خطيرة	-0.02358741
-4.110421	خفت	-0.03644114
-3.03124	خلال	-0.0195238
-4.110421	خلاوني	-0.03647482
-4.110421	خلدون	-0.0267678
-4.110421	خلط	-0.03647482
-3.809391	خلق	-0.03637376
-3.809391	خليفة	-0.1643792
-4.110421	خليو	-0.03640745
-3.809391	خمس	-0.1641095
-3.809391	خمسة	-0.1636033
-4.110421	خود	-0.03647482
-4.110421	خونا	-0.02358741
-3.508361	خير	-0.1308962
-4.110421	خيرت	-0.03647482
-3.265323	د	-0.06921728
-3.6333	دائما	-0.03380575
-3.6333	دابا	-0.03492267
-4.110421	دات	-0.03647482
-3.411451	داخل	-0.06978324
-4.110421	داخلي	-0.02358741
-4.110421	داخلين	-0.03600302
-4.110421	دار	-0.03647482
-4.110421	دارت	-0.03180166
-4.110421	داركم	-0.002727602
-4.110421	دارها	-0.002727602
-4.110421	دازت	-0.03644114
-4.110421	داعش	-0.03634007
-4.110421	دافعه	-0.03647482
-4.110421	داك	-0.03644114
-3.6333	داكشي	-0.03492267
-4.110421	داوه	-0.03637376
-4.110421	دايخين	-0.03475364
-3.411451	داير	-0.07780524
-3.508361	دايرين	-0.03617157
-3.411451	دبا	-0.03380576
-4.110421	دجنبر	-0.03647482
-3.809391	دخل	-0.0355307
-4.110421	دخلات	-0.03647482
-4.110421	دخلتي	-0.03647482
-4.110421	دخيلة	-0.002727602
-4.110421	دراري	-0.0267678
-4.110421	دراسة	-0.03640745
-4.110421	دراسية	-0.002727602
-4.110421	درجة	-0.03647482
-4.110421	درسا	-0.03647482
-4.110421	درست	-0.03593557
-3.508361	درهم	-0.05832931
-4.110421	دستورية	-0.03620528
-4.110421	دعاء	-0.03644114
-4.110421	دعائية	-0.03647482
-3.6333	دعاة	-0.002545532
-4.110421	دعم	-0.03610416
-4.110421	دعمه	-0.03647482
-4.110421	دعني	-0.03647482
-4.110421	دعوة	-0.03647482
-4.110421	دعوناك	-0.03644114
-4.110421	دعيت	-0.03634007
-4.110421	دفاعا	-0.03431381
-4.110421	دفاعي	-0.03431381
-4.110421	دفع	-0.03644114
-4.110421	دقايق	-0.03180166
-4.110421	دكتاتور	-0.03647482
-4.110421	دكدنا	-0.03647482
-3.508361	دليل	-0.2609269
-4.110421	دم	-0.002727602
-4.110421	دنا	-0.03647482
-4.110421	ده	-0.03647482
-4.110421	دهاء	-0.0267678
-4.110421	دواء	-0.03637376
-4.110421	دوائر	-0.03637376
-4.110421	دواوير	-0.03647482
-4.110421	دوباج	-0.03640745
-3.809391	دور	-0.03630637
-4.110421	دورا	-0.03647482
-4.110421	دورة	-0.03627268
-4.110421	دوره	-0.02358741
-4.110421	دوزت	-0.03613787
-3.33227	دول	-0.117264
-4.110421	دولا	-0.03556446
-3.411451	دولار	-0.01932082
-3.33227	دولة	-0.03397518
-3.411451	دون	-0.03448302
-4.110421	دونت	-0.03647482
-3.809391	دي	-0.03637376
-4.110421	دياااالنا	-0.002727602
-2.578943	ديال	-0.007128689
-4.110421	ديالك	-0.002727602
-4.110421	ديالكم	-0.03180166
-3.809391	ديالنا	-0.03593557
-3.508361	ديالهم	-0.03427995
-3.33227	ديالو	0.02295339
-4.110421	ديجي	-0.03647482
-3.809391	دير	-0.03623898
-4.110421	ديرانية	-0.002727602
-4.110421	ديكتاتورية	-0.03647482
-3.809391	ديما	-0.03630637
-4.110421	ديمقراطية	-0.03647482
-4.110421	ديمقراطيين	-0.03647482
-4.110421	ديموقراطي	-0.03647482
-3.809391	ديموقراطيين	-0.03640745
-4.110421	ذ	-0.03647482
-4.110421	ذات	-0.03637376
-4.110421	ذاتي	-0.0267678
-4.110421	ذقتو	-0.03610416
-4.110421	ذكاء	-0.03647482
-3.809391	ذكرت	-0.03583439
-3.6333	ذكرى	-0.03613786
-3.6333	ذلك	-0.0006476156
-4.110421	ذمام	-0.03637376
-4.110421	ذنبي	-0.03461835
-4.110421	ذنوب	-0.002727602
-4.110421	ذو	-0.03647482
-4.110421	ذوي	-0.03647482
-3.6333	ر	0.007997185
-3.809391	رأس	-0.03644113
-4.110421	رأي	-0.03607045
-4.110421	رأيي	-0.03647482
-3.411451	رئاسة	-0.04834368
-3.156179	رئيس	-0.1539278
-3.6333	رئيسا	0.01129327
-4.110421	را	-0.002727602
-4.110421	رائع	-0.02358741
-3.809391	رائعة	-0.03644113
-4.110421	رابعة	-0.03647482
-4.110421	راتب	-0.03613787
-4.110421	راجعون	-0.002727602
-4.110421	راجل	-0.03583439
-4.110421	راجووووول	-0.03593557
-4.110421	راجين	-0.0267678
-4.110421	راديو	-0.03647482
-3.809391	راس	-0.03620528
-4.110421	راسك	-0.03647482
-4.110421	راسكم	-0.03637376
-4.110421	راسهم	-0.03647482
-3.809391	راسو	-0.03583439
-4.110421	راسي	-0.002727602
-4.110421	راشك	-0.002727602
-4.110421	راك	-0.03644114
-4.110421	راكم	-0.03647482
-4.110421	راموس	-0.002727602
-3.411451	راه	-0.03522679
-4.110421	رباح	-0.03644114
-4.110421	رباعة	-0.03647482
-4.110421	ربحتي	-0.03617158
-3.809391	ربط	-0.03620528
-4.110421	ربع	-0.03630638
-2.879972	ربما	-0.01489631
-4.110421	ربنا	-0.03647482
-3.508361	ربي	0.001111701
-4.110421	ربيعة	-0.002727602
-4.110421	ربينا	-0.03637376
-3.508361	رجال	-0.002326969
-3.809391	رجعت	-0.03644113
-4.110421	رجعنا	-0.03647482
-3.508361	رجل	-0.03607044
-3.809391	رحلة	-0.03603673
-3.809391	رحم	-0.1638396
-4.110421	رحمه	-0.03559821
-4.110421	رحو	-0.03647482
-3.809391	رحيل	-0.03640745
-4.110421	رخصت	-0.03647482
-3.809391	رد	-0.03634007
-3.809391	ردة	-0.1646488
-4.110421	ردد	-0.02358741
-4.110421	ردود	-0.03647482
-3.809391	رسالة	-0.03532812
-4.110421	رسمي	-0.03647482
-3.6333	رسمية	-0.02348329
-4.110421	رسوم	-0.03647482
-4.110421	رشيد	-0.03634007
-4.110421	رصدت	-0.03630638
-4.110421	رعاه	-0.03556446
-3.207331	رغم	-0.06025051
-4.110421	رفاق	-0.03647482
-3.809391	رفض	-0.03583439
-3.809391	رفضت	-0.03637376
-3.6333	رفع	-0.02659554
-3.809391	رفيق	-0.03644113
-3.809391	رقم	-0.03159733
-4.110421	ركعات	-0.0330256
-4.110421	رموز	-0.03644114
-4.110421	رمى	-0.03637376
-4.110421	رميت	-0.03647482
-4.110421	رنا	-0.03647482
-4.110421	رهيب	-0.03647482
-4.110421	رواجا	-0.03637376
-4.110421	رواد	-0.03613787
-4.110421	رواية	-0.03647482
-4.110421	روبيين	-0.03630638
-4.110421	رور	-0.03640745
-3.508361	روس	-0.2470404
-4.110421	روسي	-0.0330256
-4.110421	روسيا	-0.03640745
-4.110421	روسية	-0.03647482
-3.6333	روعة	-0.08377819
-4.110421	روعه	-0.03549694
-4.110421	رومانسية	-0.03637376
-4.110421	رونادلوووووو	-0.002727602
-4.110421	ريئس	-0.03563195
-3.809391	ريال	-0.03563195
-4.110421	ريحة	-0.03630638
-4.110421	ريم	-0.0330256
-4.110421	رﺍﺟﻞ	-0.03647482
-4.110421	ز	-0.03627268
-4.110421	زائد	-0.03627268
-4.110421	زاد	-0.03644114
-4.110421	زادوه	-0.03640745
-4.110421	زارو	-0.03471982
-3.809391	زالت	-0.03607044
-4.110421	زايد	-0.03617158
-4.110421	زر	-0.03630638
-4.110421	زروال	-0.03644114
-4.110421	زسنة	-0.002727602
-4.110421	زعم	-0.03627268
-3.6333	زعما	-0.001962442
-4.110421	زعماء	-0.03640745
-4.110421	زعيم	-0.03630638
-4.110421	زعيمة	-0.03647482
-4.110421	زفافه	-0.002727602
-4.110421	زكاة	-0.03627268
-4.110421	زملاء	-0.02358741
-4.110421	زمن	-0.03640745
-4.110421	زميله	-0.02358741
-4.110421	زهر	-0.034686
-4.110421	زهير	-0.03613787
-4.110421	زو	-0.002727602
-4.110421	زواج	-0.03637376
-4.110421	زوجة	-0.03647482
-4.110421	زوما	-0.03180166
-3.6333	زوين	0.001074981
-4.110421	زوينة	-0.002727602
-4.110421	زوينين	-0.03647482
-4.110421	زوييييين	-0.002727602
-3.6333	زيادة	-0.03458451
-3.6333	زيارات	-0.03573317
-3.809391	زيارة	-0.03634007
-4.110421	زيارتي	-0.002727602
-4.110421	زيد	-0.02358741
-4.110421	زيدان	-0.03623898
-4.110421	زيدو	-0.03647482
-4.110421	زيدوه	-0.03644114
-3.809391	زيرو	-0.002691191
-3.809391	س	-0.03458452
-4.110421	سأحل	-0.03644114
-4.110421	سائبة	-0.03647482
-4.110421	سابع	-0.03647482
-4.110421	سابقة	-0.03647482
-4.110421	سابقون	-0.03647482
-4.110421	سابقين	-0.002727602
-4.110421	ساخر	-0.002727602
-4.110421	سادجا	-0.03640745
-4.110421	سارة	-0.002727602
-4.110421	ساريك	-0.03610416
-4.110421	ساسة	-0.002727602
-4.110421	ساعات	-0.03647482
-3.411451	ساعة	0.001221895
-4.110421	ساعك	-0.03647482
-4.110421	سافر	-0.03180166
-4.110421	ساقها	-0.03647482
-4.110421	ساكن	-0.03647482
-4.110421	سامحيني	-0.002727602
-4.110421	سامس	-0.002727602
-4.110421	سامسونغ	-0.03647482
-4.110421	ساندرز	-0.03556446
-4.110421	سانفلانتين	-0.03637376
-4.110421	ساهلة	-0.002727602
-4.110421	ساهلين	-0.03647482
-4.110421	ساهم	-0.03613787
-4.110421	ساهمت	-0.03603673
-4.110421	سايان	-0.03647482
-4.110421	سب	-0.03647482
-3.6333	سبب	-0.03634006
-4.110421	سبع	-0.03586812
-3.809391	سبق	-0.03644113
-4.110421	سبقتها	-0.03647482
-4.110421	سبقها	-0.03637376
-3.809391	سبيل	-0.03644113
-3.6333	ست	-0.3797655
-4.110421	ستحدد	-0.02358741
-4.110421	ستختلف	-0.03431381
-4.110421	ستسهل	-0.03647482
-4.110421	ستصل	-0.03556446
-4.110421	ستطبق	-0.03647482
-3.809391	ستفتح	-0.03644113
-4.110421	ستقتحم	-0.03644114
-4.110421	ستكون	-0.03630638
-4.110421	ستنتصر	-0.03180166
-4.110421	ستنظم	-0.03647482
-4.110421	ستيف	-0.03647482
-3.508361	سجن	-0.09574436
-4.110421	سجي	-0.03634007
-4.110421	سذاجة	-0.03630638
-4.110421	سر	-0.03647482
-4.110421	سربيو	-0.03640745
-4.110421	سردها	-0.03647482
-4.110421	سطاتو	-0.03546318
-4.110421	سطحي	-0.03617158
-3.508361	سعد	-0.2657033
-4.110421	سعداتك	-0.03613787
-4.110421	سعدالدين	-0.03640745
-4.110421	سعر	-0.03644114
-4.110421	سعوديات	-0.03647482
-4.110421	سعودية	-0.03644114
-3.411451	سعيد	-0.08299344
-4.110421	سقطت	-0.03647482
-4.110421	سقوطه	-0.02358741
-3.33227	سكان	-0.2290262
-3.809391	سكتت	-0.03630637
-4.110421	سكن	-0.03637376
-4.110421	سلا	-0.03623898
-3.809391	سلطات	-0.03434766
-4.110421	سلطة	-0.03647482
-4.110421	سلطوي	-0.03647482
-4.110421	سلوك	-0.03647482
-4.110421	سليم	-0.03647482
-4.110421	سليمان	-0.03644114
-4.110421	سمح	-0.03637376
-4.110421	سمحولي	-0.03644114
-4.110421	سمعت	-0.03644114
-4.110421	سمعنا	-0.002727602
-3.809391	سمو	-0.1646825
-4.110421	سميتو	-0.002727602
-2.996478	سنة	-0.05919298
-3.809391	سنتيم	-0.0235527
-4.110421	سنطيحة	-0.03647482
-4.110421	سنكون	-0.03634007
-4.110421	سننتظر	-0.03640745
-2.831668	سنوات	-0.00396337
-3.6333	سنويا	-0.02341388
-3.809391	سنين	-0.161267
-4.110421	سهامهم	-0.03644114
-4.110421	سهل	-0.03637376
-3.809391	سوء	-0.03637376
-4.110421	سوءا	-0.03431381
-4.110421	سواءا	-0.03647482
-4.110421	سوداء	-0.03647482
-4.110421	سوريا	-0.03647482
-4.110421	سورية	-0.002727602
-4.110421	سولو	-0.03647482
-3.508361	سوى	-0.06205907
-4.110421	سويدان	-0.03640745
-4.110421	سي	-0.03644114
-4.110421	سياحية	-0.03603673
-3.809391	سيارات	-0.03640745
-4.110421	سيارة	-0.03644114
-3.508361	سياسة	-0.06205907
-4.110421	سياسوي	-0.03647482
-3.33227	سياسي	-0.02638876
-4.110421	سياسيا	-0.03644114
-3.33227	سياسية	-0.02462705
-4.110421	سيبرز	-0.03637376
-4.110421	سيتم	-0.03640745
-4.110421	سيجارة	-0.03647482
-4.110421	سيد	-0.03647482
-4.110421	سيدة	-0.03647482
-4.110421	سيده	-0.03637376
-4.110421	سيدي	-0.03637376
-4.110421	سيذكرهم	-0.002727602
-4.110421	سيرتو	-0.03613787
-4.110421	سيركبون	-0.03647482
-4.110421	سيرو	-0.03647482
-4.110421	سيساهم	-0.03444919
-4.110421	سيشعل	-0.03647482
-4.110421	سيصبح	-0.03647482
-4.110421	سيصبحون	-0.03640745
-4.110421	سيصوت	-0.03647482
-4.110421	سيضحي	-0.03644114
-4.110421	سيفط	-0.03647482
-3.809391	سيفقدون	-0.1646825
-4.110421	سيفوز	-0.03640745
-4.110421	سيكذبه	-0.03647482
-4.110421	سيكوباتية	-0.03549694
-3.809391	سيكون	-0.02673335
-4.110421	سيمانة	-0.03647482
-4.110421	سينفع	-0.03444919
-4.110421	سيوافق	-0.03630638
-3.809391	ش	-0.03644113
-4.110421	شأن	-0.03630638
-4.110421	شأنك	-0.03647482
-4.110421	شؤون	-0.03647482
-4.110421	شئ	-0.02358741
-4.110421	شئت	-0.0267678
-4.110421	شاء	-0.03559821
-3.809391	شاب	-0.0266989
-4.110421	شادينها	-0.03640745
-4.110421	شارع	-0.03586812
-3.6333	شارك	-0.1037051
-4.110421	شاركتو	-0.03647482
-4.110421	شاركوا	-0.02358741
-4.110421	شاري	-0.03647482
-4.110421	شاف	-0.03647482
-4.110421	شافو	-0.03647482
-4.110421	شاقور	-0.02358741
-4.110421	شاكلة	-0.03647482
-3.809391	شاهد	-0.03546318
-4.110421	شاهدوا	-0.03563195
-4.110421	شباب	-0.03634007
-3.411451	شباط	-0.03529434
-4.110421	شبح	-0.03637376
-4.110421	شبعتوني	-0.03647482
-3.809391	شبه	-0.03644113
-4.110421	شبهة	-0.03647482
-4.110421	شبيهة	-0.03647482
-3.809391	شحال	-0.02673335
-3.411451	شخص	-0.02275389
-3.809391	شخصي	-0.03637376
-4.110421	شخصيا	-0.03647482
-4.110421	شخصيات	-0.03634007
-3.809391	شخصية	-0.03600301
-3.809391	شديد	-0.03630637
-4.110421	شراء	-0.03647482
-4.110421	شرائك	-0.03647482
-4.110421	شرسة	-0.03586812
-4.110421	شرعيا	-0.03647482
-4.110421	شرعية	-0.03623898
-4.110421	شرق	-0.03634007
-4.110421	شرك	-0.002727602
-3.265323	شركة	-0.02549152
-4.110421	شروط	-0.03647482
-4.110421	شريط	-0.03647482
-3.809391	شعار	-0.03586812
-4.110421	شعارات	-0.0359693
-4.110421	شعب	-0.03647482
-4.110421	شعبه	-0.002727602
-3.6333	شعبية	-0.03536188
-4.110421	شعبيتها	-0.03647482
-4.110421	شعكاكة	-0.03647482
-4.110421	شعوبنا	-0.03647482
-4.110421	شعيلة	-0.03559821
-3.508361	شغل	-0.03563195
-4.110421	شفت	-0.03647482
-4.110421	شفتك	-0.002727602
-4.110421	شفتو	-0.03640745
-4.110421	شفشاون	-0.03644114
-4.110421	شقير	-0.02358741
-4.110421	شقيق	-0.03580066
-3.809391	شكر	-0.03173356
-3.156179	شكرا	-0.05454248
-4.110421	شكرتك	-0.0330256
-3.809391	شكل	-0.0355982
-3.809391	شكلاط	-0.002545539
-4.110421	شكلطة	-0.03627268
-3.265323	شكون	-0.04606742
-4.110421	شكوى	-0.03563195
-4.110421	شمال	-0.03644114
-4.110421	شمالي	-0.03637376
-4.110421	شمعة	-0.03644114
-4.110421	شمولي	-0.03630638
-3.508361	شمولية	-0.06202266
-4.110421	شنها	-0.03180166
-3.207331	شنو	-0.03593557
-4.110421	شهادات	-0.03647482
-4.110421	شهادة	-0.03627268
-4.110421	شهادته	-0.002727602
-4.110421	شهدو	-0.03637376
-3.809391	شهر	-0.03630637
-4.110421	شهرين	-0.0330256
-4.110421	شهود	-0.03640745
-4.110421	شهور	-0.03620528
-3.110421	شهيد	-0.7350067
-4.110421	شوارع	-0.03444919
-4.110421	شوارما	-0.0330256
-4.110421	شواهد	-0.03644114
-3.809391	شوفو	-0.03580065
-4.110421	شوق	-0.03556446
-4.110421	شوكولاطة	-0.03647482
-4.110421	شويا	-0.03583439
-3.809391	شوية	-0.03529435
-2.61906	شي	-0.08083513
-3.809391	شيء	-0.03637376
-4.110421	شيئا	-0.002727602
-4.110421	شيعي	-0.002727602
-4.110421	شين	-0.002727602
-4.110421	شيوعا	-0.02358741
-4.110421	شيوعية	-0.03630638
-4.110421	صائب	-0.03647482
-4.110421	صابر	-0.03634007
-3.6333	صاحب	-0.03634006
-4.110421	صاحبها	-0.03647482
-4.110421	صادق	-0.03637376
-4.110421	صاروخا	-0.03647482
-4.110421	صاعين	-0.03617158
-4.110421	صاغه	-0.002727602
-3.508361	صافي	-0.03478744
-3.411451	صباح	-0.03617157
-3.6333	صباحكم	-0.08374177
-4.110421	صبحية	-0.03647482
-4.110421	صبرو	-0.03647482
-4.110421	صح	-0.03637376
-4.110421	صحاب	-0.03444919
-4.110421	صحافة	-0.03647482
-3.809391	صحافي	-0.03118839
-3.809391	صحة	-0.03644113
-3.6333	صحيح	-0.002618365
-4.110421	صحيفة	-0.0359693
-4.110421	صحييييح	-0.0330256
-4.110421	صدعتني	-0.03640745
-4.110421	صدقنا	-0.03647482
-4.110421	صدور	-0.03640745
-3.508361	صديقي	-0.0610384
-3.809391	صراحة	-0.03637376
-4.110421	صراعات	-0.03647482
-3.809391	صرخة	-0.03569944
-3.809391	صرف	-0.03637376
-4.110421	صريح	-0.03647482
-4.110421	صعبا	-0.002727602
-4.110421	صعبة	-0.02358741
-4.110421	صعوبة	-0.02358741
-4.110421	صعود	-0.03617158
-4.110421	صعيب	-0.0330256
-4.110421	صغير	-0.03644114
-4.110421	صغيرة	-0.03647482
-4.110421	صفات	-0.03647482
-4.110421	صفوف	-0.03640745
-4.110421	صلاة	-0.03647482
-3.809391	صلاحيته	-0.03610416
-4.110421	صلي	-0.03637376
-4.110421	صمتهم	-0.03644114
-4.110421	صناعة	-0.03634007
-4.110421	صنع	-0.03637376
-4.110421	صنعت	-0.03640745
-4.110421	صنعتها	-0.03647482
-4.110421	صنف	-0.03647482
-4.110421	صهانية	-0.02358741
-4.110421	صوتوا	-0.03586812
-3.6333	صوتي	-0.03580065
-4.110421	صوتيات	-0.03623898
-3.207331	صورة	-0.03322926
-4.110421	صوره	-0.0352268
-4.110421	صياغة	-0.03647482
-3.6333	صيدنايا	-0.002654776
-4.110421	صيفي	-0.002727602
-3.809391	صيني	-0.03620528
-3.809391	صينية	-0.03640745
-4.110421	ض	-0.03647482
-4.110421	ضايعين	-0.0267678
-4.110421	ضجات	-0.03647482
-3.809391	ضجة	-0.002691191
-3.809391	ضحايا	-0.03637376
-4.110421	ضحكو	-0.03495649
-4.110421	ضخ	-0.03640745
-2.831668	ضد	-0.07164261
-4.110421	ضرورة	-0.03647482
-4.110421	ضريح	-0.03647482
-4.110421	ضعف	-0.03647482
-4.110421	ضعيف	-0.03556446
-4.110421	ضغوطات	-0.03637376
-4.110421	ضم	-0.03600302
-4.110421	ضمن	-0.03644114
-4.110421	ضوئية	-0.03630638
-4.110421	ضيافة	-0.03617158
-3.809391	ضيفا	-0.160043
-4.110421	ط	-0.002727602
-4.110421	طائرتين	-0.02358741
-4.110421	طابت	-0.03647482
-4.110421	طار	-0.03647482
-4.110421	طارق	-0.03647482
-3.809391	طاطا	-0.1646825
-4.110421	طال	-0.03647482
-3.809391	طبعا	-0.03640745
-3.809391	طبيب	-0.03630637
-4.110421	طبيعته	-0.03549694
-3.809391	طحن	-0.1646488
-4.110421	طرا	-0.03647482
-4.110421	طرد	-0.0267678
-4.110421	طرده	-0.0267678
-3.411451	طرف	-0.03471981
-3.809391	طريق	-0.03644113
-3.809391	طريقة	-0.03607044
-4.110421	طفل	-0.03647482
-4.110421	طفلة	-0.03647482
-4.110421	طفلك	-0.03637376
-4.110421	طفولي	-0.03627268
-4.110421	طقس	-0.03546318
-4.110421	طلابي	-0.03647482
-3.6333	طلب	-0.03640744
-4.110421	طلبة	-0.03637376
-4.110421	طلع	-0.03644114
-4.110421	طلعات	-0.03647482
-4.110421	طلق	-0.0359693
-3.508361	طنجة	-0.06136674
-4.110421	طواسل	-0.03647482
-4.110421	طوال	-0.03586812
-4.110421	طواليطات	-0.03536189
-4.110421	طوموبيل	-0.0359693
-3.6333	طويل	-0.03135883
-4.110421	طويلة	-0.03647482
-3.809391	طيب	-0.03623898
-3.809391	طيلة	-0.03634007
-4.110421	ظروف	-0.03647482
-4.110421	ظريف	-0.03647482
-4.110421	ظنكم	-0.03623898
-4.110421	ظه	-0.03559821
-4.110421	ظهر	-0.03563195
-4.110421	ظهرت	-0.03610416
-4.110421	ظهور	-0.03644114
-3.508361	ع	-0.002254087
-4.110421	عائدات	-0.002727602
-4.110421	عائلات	-0.03647482
-4.110421	عاااااااام	-0.03627268
-4.110421	عابد	-0.03647482
-4.110421	عاجبهوم	-0.03647482
-3.6333	عاجل	-0.1174662
-4.110421	عاجلا	-0.03610416
-4.110421	عاداه	-0.03644114
